#define INPUT_SIZE 21
#define HIDDEN_SIZE 3
#define OUTPUT_SIZE 3

double const hidden_bias[HIDDEN_SIZE] = {
    0.39832570839026904,
    0.1605624598440905,
    0.5324232692249139
};

double const output_bias[OUTPUT_SIZE] = {
    0.5144837505841111,
    -0.3180327795072319,
    -0.6209962969859462
};

double const output_weights[OUTPUT_SIZE*HIDDEN_SIZE] = {
    1.0746923135666613,
    -1.2391205226915465,
    -0.8319610838504377,
    -0.6929492209624085,
    0.6002867725408909,
    -0.7236438702563148,
    -1.9729783350880774,
    0.7706447052098919,
    1.1440765214577697
};

double const hidden_weights[INPUT_SIZE*HIDDEN_SIZE] = {
    -0.08219146251432813,
    1.0769869899550182,
    -0.05088947388031397,
    1.0838718688582196,
    0.5272659668921466,
    -0.5349238637105227,
    -1.0834734204121776,
    -0.6017219014009797,
    0.5216861251894986,
    -0.6741930879101631,
    0.9152377780366632,
    0.5886397066221515,
    0.10708381772582445,
    0.3147058046098541,
    0.29884590979940096,
    0.016291178258063505,
    0.23429462019017616,
    0.5104256389243933,
    0.09239322657281344,
    -0.9812369623268216,
    0.10999815201364166,
    0.8027429526780707,
    -0.7921318589195606,
    0.8371510099004212,
    -0.6183282738795719,
    0.3487511916635191,
    0.25150937081857155,
    1.0274093183319433,
    0.8132923682022977,
    -0.5992628440763731,
    0.9577413934716823,
    -0.18011044574951157,
    0.3209169689723827,
    -0.19267576991299679,
    0.3174535977422898,
    -0.10416776650601459,
    -0.041309297190460975,
    0.010300899079043345,
    0.1122592126115418,
    0.14573809143276886,
    0.5407678588376489,
    -0.27642028816634534,
    -0.12775482320950654,
    -0.12759887747994492,
    0.1468133032108444,
    0.45414289555057813,
    0.5621396764875509,
    0.6115691228364932,
    1.4400805739795852,
    0.46980675660006654,
    0.8190592756131252,
    -0.5711084282109582,
    0.0239393155610773,
    0.11033082691679866,
    -0.36580802269805723,
    0.28947305469558654,
    0.33379747152674477,
    0.5746025349068148,
    -0.37575993201621477,
    -0.33231561802949594,
    -0.8173585986320281,
    1.0930021904972145,
    -0.43452711714798936
    };