#define Num_Data_Samples 20

const int16_t RFID_Input_Signal[Num_Data_Samples][7] = {
  {24, 129, 1700, 7, 55, 10025, 1},
  {21, 115, 1600, 14, 52, 10037, -2},
  {22, 122, 1700, 6, 48, 10044, 0},
  {19, 128, 1899, 2, 47, 10055, 1},
  {18, 122, 1899, 2, 41, 10068, 1},
  {18, 115, 1700, 2, 34, 10076, -1},
  {18, 101, 1600, 3, 17, 10087, -1},
  {20, 95, 1399, 2, 11, 10095, -4},
  {30, 87, 1200, 2, 24, 10101, -53},
  {24, 95, 1200, 14, 44, 10107, -113},
  {24, 51, 900, 32, 40, 10116, -116},
  {12, 43, 500, 36, 27, 10129, -84},
  {18, 68, 700, 14, 58, 10139, -78},
  {24, 66, 600, 19, 76, 10148, -93},
  {28, 94, 600, 38, 86, 10148, -99},
  {27, 93, 600, 43, 81, 10144, -41},
  {27, 91, 700, 48, 87, 10137, -56},
  {51, 57, 1200, 39, 92, 10125, -37},
  {41, 48, 1000, 48, 98, 10119, -13},
  {31, 52, 1200, 56, 100, 10111, -20},
};

// Layer 0
const int32_t W0[] = {-123, -98, 111, -51, 279, 67, 162, 99, 97, -53, 5, 30, -46, 145, -114, 67, 9, -145, 51, 32, 90, -111, 58, -125, 175, 25, -72, 126, 99, -146, 18, 131, 59, -70, -48, -39, -131, 41, -91, -138, -129, 94, 44, -93, -122, 74, -164, 56, -138, -112, -88, 29, 22, 35, 49, 80, 141, 82, 19, -123, 133, 195, -26, -210, -145, 18, 101, -37, 58, -115, 120, 42, 36, -58, 26, 52, -97, -47, -82, -96, -25, -100, 130, -115, -117, 15, 89, 22, 31, 76, 178, 142, 68, -138, -130, -84, 149, -28, 15, 139, 82, 117, -71, -139, 36, -26, 110, 84, -96, -150, 7, 71, -72, 68, -137, 83, -106, 123, -19, 42, 44, -97, 103, -1, 66, 126, -143, -5, 29, 106, 19, -15, 189, -92, 68, -111, -97, -187, 14, -143, 112, 86, -5, 143, 5, 62, 130, -81, 158, -45, -53, 220, -4, 77, 84, -63, -8, -28, 75, -29, -39, 91, 114, -37, -104, -32, -29, -43, -68, -34, 9, 127, 13, -196, 204, -102, 8, 55, -113, -62, 120, -75, 86, 102, -8, -185, 124, -66, -131, -33, -36, 5, 89, -121, -126, -101, 117, 17, -85, 18, -23, 27, 60, 34, 98, -1, 54, 40, 148, 135, -4, 25, -57, -13, -153, 103, -184, 57, 149, -68, 11, -78, -3, -118, -130, 178, 47, 28, -121, -45, -125, 40, 3, 144, -169, -47, 25, -139, 167, 146, 65, 89, -66, -68, -94, -25, 4, -38, -67, -50, -4, 136, -31, -103, -185, -10, 33, 147, -142, 82, -176, 42, 142, -77, 69, -94, -35, 107, 7, 17, -95, -36, -4, 70, -75, 12, 92, -226, -47, 55, -69, 47, 11, -146, 31, -151, -96, 147, 6, 130, 68, 118, -95, 121, -203, -37, -138, 52, 110, 134, -100, -47, -70, -199, -57, -97, -116, -144, 96, -41, -25, -115, 138, 28, 188, 73, -69, -86, -72, -30, 49, -126, 16, -80, 61, 29, -137, 33, 104, 5, 28, -106, -108, 141, 121, 8, -15, -95, 45, -70, -8, -48, 32, -55, 120, -111, -100, -5, -16, 148, 22, -25, 106, 65, 16, 119, 33, 85, -84, 184, -166, -91, 113, 134, -26, 60, 6, 84, -136, -215, 27, 9, 97, 15, -167, 127, 30, -15, -65, -11, 25, 107, 157, 1, -129, -56, 72, -119, -142, 6, 11, -78, -61, 125, -91, -48, 73, 19, -61, -37, -188, -177, -126, -141, 148, -72, 18, 238, -4, 19, -14, 6, 172, -81, 42, -215, 116, -4, 52, 42, -120, -105, -64, -50, -96, -137, -50, -47, -14, 35, -4, 117, -95, 47, 194, 40, -47, 0, 51, 126, -3, 133, 45, -104, 60, -97, 133, 17, -16, 89, 154, -10, -66, 90, -103, -76, 86, -27, -161, 58, -209, -12, -125, 53, 228, -3, -33, 160, -39, -50, 128, -68, -32, -122, 58, 52, -58, -35, -201, -10, -116, 150, 180, -3, -138, -53, 241, 12, 73, -60, 110, 96, 104, -229, 45, -215, 86, -132, -135, -29, 241, -108, -12, -117, -15, -160, 136, 63, 7, -121, -7, 156, 30, 81, 108, 10, 126, -33, -165, -18, 114, -105, 56, 39, 72, 120, 40, -89, -159, -67, 101, -89, -137, -113, 13, -49, -89, -46, 222, 43, 100, -18, 57, 104, 127, 52, 137, 9, 77, -112, -98, -112, -93, -88, 0, 160, 51, -105, 68, 60, 59, -57, -90, 86, 133, 69, -45, -119, 6, 19, 47, 7, -133, 67, 96, 45, 48, -17, 88, -53, -55, 98, -27, 33, 46, 27, 41, -129, -41, -46, -14, 82, 78, 0, 82, 94, 86, -105, -45, -129, -73, 60, -136, 57, -56, -18, -24, 55, -15, 66, -1, -58, 109, 139, 29, -66, -11, -118, -85, 67, 127, -76, 39, -127, -63, 16, -60, -106, 18, 104, 56, -107, -133, 115, -45, -124, -113, -140, -43, -20, 138, 24, -65, -130, -97, -34, -84, 60, -59, -22, -34, -158, 14, 143, 56, -144, 59, 157, -34, -129, 26, 110, -110, -86, 100, -35, -53, -72, 34, -141, -35, -62, 119, -50, -18, -59, -68, 113, -102, 14, 104, 151, -57, 16, -89, -65, -71, -76, 101, 38, 16, -35, 140, -49, -87, -12, -59, -59, -104, 124, 7, -18, 13, -5, 84, 12, -58, -41, -52, 49, -40, 60, -99, -145, 43, 105, 41, 91, -14, 130, 122, -143, -118, 84, -73, 69, -95, -9, -21, 73, -139, -81, -71, -72, 132, 106, -134, -56, -28, -112, -133, -90, -119, 99, -102, 22, -39, 63, 7, -121, 6, 113, -22, -129, -70, -55, 115, -40, 104, -128, -34, -134, 81, 33, -30, 96, 89, 139, 85, -94, 36, -65, -76, 116, -28, 19, 103, -3, 30, -81, -107, -42, 96, -13, -85, -56, -29, 82, -31, 114, -60, -103, -125, 17, -108, 22, 35, 24, -46, -161, 56, -87, 107, 42, 147, -68, 126, 35, 109, -86, -84, -72, 80, -20, -395, 163, -398, -76, 121, 139, 57, -113, -34, -34, -122, -263, -116, -142, -111, -44, 88, -56, -98, 71, -221, 124, 95, -108, -52, 32, -43, -32, -162, -53, 75, 46, -49, 15, -85, 129, -46, -30, 118, 101, 66, 107, -162, 12, -54, 74, -69, 115, 64, 46, -1, -91, -36, -101, -46, -95, -152, 95, -16, 0, 16, 71, -78, 62, -87, 9, 31, -26, 64, -83, -69, 31, -20, 3, -40, -28, -127, 82, 20, -27, 116, -98, 10, -122, -101, 205, -92, 64, 1, 57, -125, -30, -27, -39, 141, -168, 58, 41, -35, -109, -112, -117, 20, 36, -104, -20, 113, 30, 45, 9, 118, 44, 27, -304, 45, -50, 16, -67, -130, -108, -102, 145, 125, 87, -37, -64, -4, 34, -196, 147, 61, 126, -167, 144, 117, -52, 92, -40, -73, 9, 65, 41, -20, -101, 86, -32, 68, -101, 68, -32, -75, -85, -101, -80, -85, 31, 128, -97, -154, 29, 40, -41, 111, 6, -45, 10, -15, -12, 100, -180, 139, 135, 38, -57, 23, -12, 19, -59, 90, 90, -124, 179, -76, 19, -37, -157, 24, 16, -15, 62, 167, 18, 95, 187, 169, -107, -91, -127, -117, -2, -124, 31, -64, 149, -185, -118, 94, -28, 70, 87, -105, 46, 70, -87, -87, -59, 116, 86, -73, 41, 5, -176, -47, 133, -1, -135, 185, -109, -125, -48, 111, 24, 61, 58, 9, -66, 48, 114, -94, 147, 5, 36, -60, -8, -193, 50, -56, -87, 81, -203, -32, 134, 19, -104, 0, -188, 84, 71, 28, 7, 60, 132, -8, 26, -2, -145, 78, 121, 96, 67, -144, 172, 56, -20, -1, -32, -198, 65, -7, -52, -215, -86, -132, 45, -16, -36, 108, -20, -53, 125, -94, 128, -87, -94, -177, 71, -8, 78, 103, -182, -104, 54, -126, -166, 0, 72, 162, -144, -122, -146, -19, 58, -22, 133, -30, -4, 100, -95, 26, -64, 51, -89, -87, 23, 184, 50, -22, -53, -170, -116, 143, -82, -36, -195, -99, 50, -62, 0, -70, -51, -71, -110, 146, 25, -56, 181, -100, -126, -23, 130, -95, 82, 89, 104, -8, 96, -94, 67, 12, -3, -132, -99, 11, -30, 63, -183, 184, -135, -97, 138, -42, 49, 15, -98, -72, 23, 132, 7, 181, -194, -34, 131, -82, -147, -9, 28, 89, 38, 73, 122, -38, -29, -41, -18, 12, -78, -107, 40, -82, 12, 145, -28, -93, 155, 123, -110, -41, 7, 199, 29, -201, -146, -102, 49, 28, -102, -46, 67, 68, 55, 13, -110, 3, 64, -184, 34, 97, 122, -234, 178, -62, 59, -49, 133, -132, -75, -126, 99, 121, -145, 86, -139, 64, 123, 70, 103, -3, 74, -51, -37, 83, -27, -142, -61, -94, -172, -13, -130, 50, 27, 206, 170, 59, 67, 94, -86, -8, -97, -45, -66, -61, 3, 55, 139, 19, 109, 67, 101, 217, 70, -156, -88, 260, -130, -141, 31, 133, -119, 141, 16, -81, -90, 83, 110, -5, -117, 122, 74, -35, -108, 164, -100, 91, 210, 164, -151, -9, 144, -42, -124, -27, -91, 93, -134, 27, 84, 65, -118, -125, -167, 7, -38, 18, -196, -71, 2, 80, -40, -200, -43, 211, 3, 142, 78, 185, -137, -65, -109, 75, 146, -39, 83, -50, 0, 112, 130, 74, -87, 126, -74, 85, -25, 82, -146, 73, -7, -98, -107, -140, 49, -21, 34, -6, -14, 27, -121, -33, -12, 110, 58, 24, -91, -52, 6, 63, -52, 129, -125, 104, -91, 13, 104, 64, -142, -129, 113, 35, -69, 123, -24, -54, -116, -137, -109, 130, 48, -3, 46, 46, -14, -112, 114, -4, 101, -56, -138, 53, 42, 8, -124, -34, -33, -146, -147, -83, 102, -83, -137, 138, -101, -139, -29, 20, -99, 23, -7, 33, -132, -35, 89, -139, -53, 50, -114, -37, 92, 30, -108, -8, -50, 55, -136, -81, 43, 92, 45, 115, -3, 123, -71, -100, 125, -80, -53, -31, 95, -109, -83, -16, -79, -121, -92, 124, 103, 7, -79, 107, 59, 31, -46, 26, -31, 117, 5, -21, -121, -138, -29, 43, -39, 132, 74, -109, -120, 87, -140, -43, 54, -147, -58, -55, -62, 35, 108, 40, -93, -120, -91, 3, 113, -3, -42, -58, 53, -108, -131, -73, -77, -5, 54, 92, -103, -33, -147, 41, -114, 95, -88, 92, -114, 39, 73, -143, -51, 133, 6, 27, -21, -94, -144, -6, 9, -2, 113, 46, 99, 37, 53, -29, 136, -108, -132, 0, 118, 36, -55, -43, 98, 86, 52, 18, -95, -15, -58, 70, 14, -4, -104, -110, 39, -142, 31, 42, -140, -96, 138, -6, -19, 144, -123, 58, 71, -114, 52, 57, 33, -118, 89, 86, -113, 124, -97, 96, -58, 17, 37, -111, -65, 128, 52, 46, 44, 119, 23, 41, 120, 114, 102, 133, -2, 99, -3, -123, 34, 62, 2, 108, 82, -98, -206, -422, 112, -237, -22, 247, -27, -18, -81, 143, -11, -32, -870, -194, -146, -137, 400, 111, 110, 142, 45, -496, 170, -81, 66, -28, -116, 47, 149, -84, -122, -150, -97, -86, 46, 70, 6, 281, 124, 98, 34, 308, 294, -196, 123, 41, -168, 268, 83, -61, -104, -133, -12, 77, 121, 181, -260, -127, -46, 89, 206, 89, -104, -141, -83, 6, -77, -4, 39, 13, -139, -130, -121, -89, -25, 100, 78, 127, 124, 193, -132, 104, 124, -334, 14, 144, 275, -3, 87, 16, 196, 32, -60, -254, 19, 139, -312, 181, 61, -26, -117, -106, 103, -12, -276, -301, -20, 39, -116, 199, -113, 96, -85, 56, -206, 131, -173, -120, -101, -39, -3, 129, 105, 114, -234, -8, 109, 27, -116, -375, 70, 207, 85, 23, 137, -30, -139, -84, -497, 241, -141, -274, -195, -68, -94, -258, 98, 137, 11, -10, 21, 40, 0, -61, 54, -273, 123, -23, 126, -308, 269, 214, 1, 65, 215, 67, 10, 60, 81, -110, 86, 43, -53, -78, -68, -142, -47, 231, -123, -143, -143, 37, 95, -50, 42, -96, -253, -80, -114, -63, 78, 407, 170, -114, 371, 291, 188, 92, -57, 76, -28, 64, 129, 40, 354, -266, -137, 141, 133, 156, 11, 130, 134, 953, -108, -63, -70, 9, -28, 115, -247, 136, -65, 153, -109, 64, -33, 466, -72, -355, 90, 231, -178, 88, 290, 60, -66, -70, 10, -48, -110, 182, 10, 244, 42, -71, -4, -143, -103, -268, -160, 214, 405, 80, -28, -273, -108, -61, 212, -242, -70, 340, 7, -62, -160, 286, 30, };
const int32_t B0[] = {0, 0, -1, 1, -9, -9, 2, -6, -6, -4, -2, 0, -17, 0, -1, -1, -15, 0, -35, -10, 0, 0, 0, -4, -4, 5, -8, 0, -4, 0, -10, -5, -4, -7, -24, 0, 0, -6, -8, 0, -13, 0, -20, 0, -28, -8, -12, 0, 0, -2, -5, 0, -15, 0, 0, 0, 0, 0, -1, -7, -11, -11, -1, -12, 0, -10, 0, -8, 0, 0, -8, -29, -23, 0, 0, 0, 0, 0, 0, -11, 0, 0, -5, 0, 0, 0, 11, 0, -10, 15, -27, 0, 0, -10, 0, 0, -3, 0, 0, -3, -4, 0, 0, 0, -5, 0, 0, -19, -9, 2, -17, -13, -1, 2, 0, -4, 0, 8, 0, -4, 0, 0, 0, 0, 0, 0, -15, 0, -16, 0, -7, -2, -6, 0, 0, 0, -6, 3, 0, 0, 0, 1, -5, 0, -5, 0, 0, 0, -8, 0, 0, -20, 0, 0, 0, 0, -7, -8, 15, 0, 0, 0, 2, -3, -6, 0, 0, -11, 0, 0, 0, 0, 0, -5, -5, 0, 0, 0, -9, 0, -7, 0, -12, 0, -12, -5, 0, 0, -11, -1, 0, 0, 0, 0, 10, 5, -5, -13, -7, -6, -3, 1, 0, -2, 0, 0, 0, -1, 2, 0, 0, -9, -9, 2, 11, 0, 15, 0, -7, -4, 0, 0, 0, 0, 0, 0, 3, 0, 0, -7, 3, 0, -1, 0, -5, -4, 0, -13, -6, 0, 0, -7, -15, 0, -10, 0, -5, 0, -5, -1, 0, 0, -1, 4, -9, -7, -14, -14, -5, -12, -5, -11, -12, 2, -11, 0, 0, -14, -5, -3, };

// Layer 1
const int32_t W1[] = {-66, -20, 32, 5, 61, -20, -14, -120, -78, -16, -3, -37, -120, -23, -95, 43, 42, 54, 35, -23, -11, 119, -79, 54, -88, 113, -53, -37, -80, 24, -37, -100, -105, 41, -22, -9, 101, -92, 97, 58, 34, -101, -56, 53, 98, -18, -24, 32, 96, -48, 33, -70, -22, -34, -98, 103, -103, 105, -56, 109, -102, -123, 46, -44, 76, 115, -62, -94, -1, 20, 15, -73, 80, 37, -12, -109, -115, -21, 5, -3, -55, 0, 69, -7, -48, -44, -115, 50, 97, -16, -86, -90, -14, -111, 17, -3, -67, -115, 102, -12, -105, -58, 96, -8, -123, -4, 76, -107, -69, 74, 111, -69, -15, 60, -83, -94, -124, 109, -91, -67, 62, -93, 24, -28, -34, -31, -42, -22, -93, 44, 11, 59, -108, 46, 9, -20, -65, -35, 24, -51, -12, -12, 116, -15, 53, -89, 0, 6, -39, 74, 108, -49, -79, -10, -27, -104, 116, -40, -101, 69, -36, -26, -83, -67, -73, -34, 19, -36, 87, -9, 39, 49, -99, 43, 104, 123, 63, -26, 87, -44, 89, 46, 102, 109, -101, 72, 121, -69, 46, 65, -21, 42, 90, 57, 33, -34, -118, 77, -52, -82, 71, -49, 38, -103, -16, 61, -11, -86, 8, 39, 5, -88, -40, 62, 123, -34, 114, 1, 55, 110, 39, -1, 52, 27, -69, -49, 67, -111, 81, 63, 71, -42, -79, -121, 5, 45, 51, -92, 117, 101, -51, 73, -88, -81, -63, 2, -30, 51, 72, -45, 74, 41, -118, 99, -75, 23, -29, 59, -15, -78, 118, -101, -117, -76, 13, -75, 38, 47, -14, -108, -35, 16, -90, -85, -89, -66, -71, -41, -8, -58, 7, 111, -101, 14, -60, 61, -12, -88, -104, -70, -109, 111, 44, 34, -59, 57, 47, -51, -98, -5, -107, -36, -119, -45, 87, -107, -116, -40, 88, 73, 62, -45, 59, 85, 51, 58, -103, -36, -6, -20, 17, -74, -68, -25, 120, 70, 9, -61, -98, 21, 13, -88, -90, 18, 0, -37, -55, 79, 51, -79, -77, 76, -79, -34, -92, -3, 97, 22, -42, 43, 106, 88, -26, -14, 120, 15, -72, -22, -29, -59, 81, 81, 120, 71, 72, -55, -22, 63, -46, -34, -50, 87, -120, 5, -86, 62, -41, 98, 26, -65, -61, 113, -78, 91, -103, -97, -120, -80, -109, 39, 35, -48, 20, -89, 82, -3, -117, 96, -33, -17, 30, 24, -123, 67, -56, -4, -76, 91, 117, 69, 122, 98, -109, 28, -77, -108, -52, -25, 100, 0, 22, -70, 26, 14, -19, -10, -42, 43, 11, -103, -43, 50, -117, 95, 22, 38, 75, 108, -64, -17, -27, -75, 98, 75, -1, 66, 68, 8, 56, -113, 85, -38, -119, -59, -9, 118, 46, -51, -24, 103, -13, -104, 55, -57, -100, 102, 51, -7, 43, 92, -77, -123, -101, 48, -22, 42, -42, 102, -45, 84, -9, 176, 45, 93, -117, 3, -104, -85, -17, 23, -55, 80, 41, -39, -93, -120, 31, -91, 28, 3, -63, -55, -138, -114, -73, -11, -30, -101, -153, 54, 17, -41, -21, -3, -12, 52, -149, -86, 69, -79, 13, 95, 23, 79, 34, 64, 30, -21, 72, -169, -4, 1, 112, -153, -4, 86, -29, -40, 5, -55, -47, -46, -137, 3, -88, 67, 0, 18, 96, -119, 174, -133, 59, -80, -148, 15, 84, 3, -64, -82, 144, 58, -12, -25, 28, 37, 32, 5, -31, -123, 92, 6, -201, -55, -109, -84, -69, 50, -76, 18, 41, 67, -103, 19, -75, 15, 34, 20, 101, -43, -28, -66, 13, 42, 46, 76, 22, 75, 118, 22, 87, -92, -21, -23, -2, -94, -4, -37, -97, 102, -75, -14, -102, 13, -103, 80, 48, -86, -17, -12, 97, 40, 47, -3, 52, -126, -68, -66, -26, -3, -83, -102, -8, -28, -24, 1, -36, -98, -22, -52, 111, 64, -115, 64, 24, -87, 92, 101, 31, -13, -103, -51, 101, -46, -24, 26, 80, -22, -50, 63, 24, 76, 16, 90, 10, -9, -51, -5, -64, -78, -32, 76, 121, -53, -31, -13, 22, -96, 18, -81, 34, 0, 45, -99, 7, -23, -59, -83, 71, 111, -85, 13, 0, 103, -104, -82, 2, 99, 22, 104, -46, -47, -115, -109, -22, -80, 117, -51, -69, -110, -110, -69, -31, 104, -43, -12, -71, 102, -20, 112, 9, 1, 1, 45, -120, 22, 52, 77, 32, -15, 14, -65, 43, -51, -118, -125, 44, 40, 105, 91, 53, 113, -193, 29, 94, 39, -119, 118, -58, 2, 128, 84, 26, -22, 57, -189, -187, -56, -26, 5, -88, 64, -102, -122, -13, 69, -75, 105, 54, -129, -125, -120, 119, -170, 101, -57, 6, -70, 56, -115, 24, 121, -13, 30, -33, 161, -16, 124, 87, 54, 191, -176, -47, 7, -91, 36, 133, -11, -43, -114, 192, -123, 131, -54, -97, 13, 19, -56, -53, -44, 175, 5, -117, 8, 65, -98, -37, 137, 64, -10, -140, -27, -60, -108, -75, 48, -39, 18, 121, -17, -20, 89, 45, -110, 38, 51, 115, 14, 110, 150, -121, 2, -97, -38, 47, 107, 92, 18, 63, 21, -114, 2, 60, 121, 40, -21, 28, 73, -61, 66, 96, -78, -42, -29, -51, 40, -34, 22, -23, 56, -53, 109, 5, 120, 83, -38, 49, 30, -103, -24, -90, -74, -6, -118, -77, 36, -40, -26, 120, -67, 15, -42, -61, -117, 91, -99, -38, -96, -2, -38, -18, -9, -59, 32, 65, -27, 116, 23, -64, -12, 108, -78, -90, -48, 5, 36, -17, 91, -97, -116, 46, 96, 60, 21, -108, -15, 4, 41, 41, -51, -56, -1, 132, 25, -28, 86, 98, 5, -12, 101, 99, -91, 89, 48, 89, -2, -2, 15, -85, 31, 2, 54, -15, -76, 17, 90, -107, -76, 97, 89, 64, 34, 103, -71, -116, 25, -104, 94, 93, 98, -13, 96, 111, 96, 100, 54, -109, -108, 8, -113, 71, 88, 106, 8, 84, 111, -5, -75, 115, 84, 6, 22, -116, 88, 107, 76, 26, 107, -52, -21, 113, -32, 79, -20, 35, 64, -99, -86, -98, -96, -11, 55, -92, 28, -27, 105, -12, -70, 60, 57, -106, -20, -105, 105, -111, 93, -100, -109, 28, -109, -64, 90, 78, -65, -66, 56, 12, 118, 113, -122, 55, 39, -119, -103, -111, -27, 36, 102, 92, 64, 14, 57, 11, -84, -94, -55, -5, -64, 14, -18, -56, -51, -100, 57, -15, 56, -38, 45, 48, -97, 116, 70, 84, -95, -112, 91, -62, -27, 98, 110, -16, -110, 23, -14, 42, 86, 94, 44, 2, -112, 24, 50, 33, 21, 71, 36, -83, -66, -109, -68, -27, -30, -105, -85, -58, 66, 76, -59, 94, -5, 48, 38, -10, -78, -102, 13, 35, 116, 80, -40, 60, 73, -3, 15, 101, 103, -31, -131, -50, 93, -21, -85, 1, 16, -117, -108, 25, -36, -29, 121, 60, 83, -21, 42, -45, -113, -108, 100, 34, -27, 80, -87, 121, 49, -31, -43, 59, -5, -100, 120, -88, -12, 37, -108, -24, 107, 61, 49, -28, -106, 101, 25, -109, -48, -103, -99, 44, -61, 114, 113, -58, 87, 62, -47, 91, 103, 70, 54, -83, -80, 72, 27, -22, -53, 26, 45, -118, 106, 94, -3, 110, -31, 51, 13, 94, 29, -100, -83, 56, -71, -20, 58, -2, 93, -25, 113, -66, -33, 19, 84, -109, 106, 48, -48, 94, -81, -121, 7, 26, 44, -2, -62, 103, 111, -19, -32, 110, -80, 6, -99, -112, 91, 41, 14, 48, 110, -57, 40, -30, 21, 37, 21, 82, -120, 97, 7, -60, 67, -91, 108, -103, -19, 85, 122, -104, 113, -49, -24, 44, 60, -71, 39, 20, -110, -71, 24, 84, 110, 13, 42, -69, -99, -78, 87, 5, -8, 102, -26, 66, -72, 94, -32, -119, 21, -12, -37, -94, 24, -91, -120, 80, -67, 37, -78, 96, 63, 104, -13, -62, 65, -31, 9, 115, -12, -29, -102, 102, 95, -128, -66, -9, 26, -84, 96, -89, 95, 37, 9, 13, -5, 85, -99, -89, 114, -61, 45, 73, 0, -53, 18, 68, -58, 55, 61, -52, 74, -102, -20, -56, -91, -110, -119, 51, -41, 16, -48, 116, -112, -43, 73, -31, -16, -37, 115, 44, 79, 60, -90, 107, 109, -4, 14, -39, 94, -106, 83, 45, 110, -114, -86, 56, 35, -78, 16, -49, 47, -23, -109, 115, 121, 87, -27, -102, -42, 94, -72, -95, -107, -83, -98, -63, 119, -43, -121, 95, -35, 59, -113, 36, 54, -107, 21, 68, -81, -61, 34, 24, 60, 89, -119, 122, -122, 105, -46, 13, 30, 58, -71, -4, 120, 1, -75, 69, -87, 29, -57, 111, 77, 57, -64, -44, -72, -69, -97, 9, -56, 0, 12, -87, -83, -79, -31, 8, -106, -113, -115, -71, 49, 51, 10, -84, 24, 42, -7, 80, -71, -73, 8, 70, -71, -92, -64, 38, -17, -21, 115, -121, 52, -107, -119, 30, -35, 109, -122, 119, 38, -20, 106, 78, 38, -98, 46, 49, 13, -62, -80, 25, -108, 42, -92, 18, -78, -16, -36, 30, 3, 47, 9, 0, 78, 2, -109, -34, -11, 77, -76, -15, 60, 65, -101, -64, -8, -67, -62, 7, 91, 10, -48, 19, 37, -99, -38, 29, -103, -13, 25, 87, 34, 49, -40, 8, -29, -117, -45, 18, -34, 118, 17, 57, -76, -3, 69, 79, -28, -55, 119, -20, -43, 13, 100, -26, -123, 2, -81, -27, 14, -83, -53, 34, 34, 88, -82, 103, 52, -95, 57, 18, 47, 123, 37, 3, -110, 94, -12, 105, -89, -9, 15, -15, 66, 74, 28, -47, 13, -98, 118, -23, -12, -62, 85, -21, 36, -18, 79, -44, 3, -44, -103, -121, -69, -84, -113, -22, -118, 66, -73, 73, -10, 10, 26, -19, -21, -74, -111, 50, 115, -87, -42, -67, -1, 11, 69, 55, -77, -83, 109, -3, -116, 68, 14, 57, 45, -15, -23, -10, 86, -79, -30, 31, -63, 38, 32, 63, 61, 18, 114, 108, -28, 13, -21, -46, 75, -45, 112, 69, -49, -118, 44, 6, -35, 21, -101, 46, -18, 66, 23, -56, -93, -108, 11, -36, -114, -56, -53, -46, -56, 27, -39, -78, -100, -18, -113, 66, -96, -23, 74, -93, -123, -120, -112, 109, -9, 80, -50, 49, -13, -6, 114, 54, -59, 116, 45, -124, 47, 50, 56, -113, -93, -131, 83, 13, 0, 19, 7, -8, 16, 89, 13, 0, -62, 72, 64, 42, -62, 86, -85, -46, -120, 38, -106, 117, -107, 116, 99, -114, -89, 102, 9, 15, -51, -63, -79, -96, 31, 68, -44, 86, -9, -25, 64, 41, 39, 26, -19, -83, 101, 79, -93, 98, -114, 80, 11, 104, -2, -103, -26, -103, -38, 50, 108, 93, 63, 84, -95, -20, -72, 8, 51, -8, -88, -72, -63, 63, -49, -14, 28, -8, 73, -115, 55, -123, 110, -139, -117, 24, -53, 116, -13, -14, -220, 95, -104, -65, 22, -116, -9, 40, 74, 4, -13, -97, -103, -11, -50, -97, -63, 56, 93, -143, 117, -73, -107, 126, 182, 0, -159, -209, 89, 22, 85, -107, -120, -105, 55, -101, -21, 65, -10, 30, -189, -65, 115, -114, -203, -3, 10, -47, -63, -79, -5, 33, -78, -135, 16, 80, 85, 203, 65, 25, 32, 176, -80, -113, -96, -63, -60, 63, -46, -111, -119, 176, 111, 26, -107, -108, 67, 137, 97, 10, 21, 160, -82, -207, -37, -63, -143, -53, -58, -71, -47, -77, 200, 36, 116, -113, 53, 78, 19, -67, -80, 72, 93, -99, -92, 95, 55, 84, 20, 19, 152, 23, -87, 103, 120, -106, 41, -7, -25, 83, 75, 78, -16, 22, 24, -34, 45, -109, 110, 111, 88, 81, -96, -14, -71, -116, 81, 87, 61, 11, -105, 113, -99, -65, -37, 115, 12, -102, 32, 54, 67, -60, -19, 19, -71, 48, -109, -117, 18, -6, -23, -42, -12, 50, -84, 20, -77, 76, -110, 57, -50, -103, -73, 76, 94, 90, 70, -76, 80, -61, 23, 85, 11, -14, -101, 6, 108, 66, 1, 120, 43, -92, 113, -59, -10, -119, 116, 113, -74, -118, -122, -6, -117, 9, 78, 5, -120, -73, 111, 90, -90, -119, 98, 18, 78, -49, 67, -40, -91, -2, 22, -23, 96, -66, -93, 28, -40, 20, -24, 81, 117, -22, -102, 58, 118, 68, -46, 62, -118, 41, 56, -57, 24, 68, 12, -120, -11, 64, -8, -15, 107, -82, -78, -102, 56, -85, 103, -119, -52, 97, -63, 93, 56, 33, 61, 75, -83, 72, -86, -68, -84, 69, 115, -23, -64, -105, -21, 80, 82, -68, -61, 54, 17, 9, -70, 68, -50, 15, -37, -16, -94, 95, 11, -105, -55, 87, 43, -115, 46, 38, -53, -1, -54, 68, -25, 58, 95, 109, 46, -19, -115, -3, -120, -45, -93, -27, 66, -32, -25, 27, 38, 66, -3, -46, 9, -27, 88, 83, 81, -16, 19, -50, 28, 6, 4, 110, -22, 106, -88, 73, -82, 117, -47, -78, 8, -112, 0, 104, 7, -68, 90, 11, 64, 88, -113, 40, 102, -95, 53, 23, -107, -15, 22, -77, 12, -123, -8, -61, 28, 41, 66, 83, -6, -27, -35, -62, 55, -44, -27, 84, -60, 50, 116, -8, -45, 117, -96, -88, -109, 54, 20, -26, 45, 112, -39, 105, -57, 14, 97, 90, 63, -64, -42, -15, 65, -31, -17, 112, -112, -46, -101, 93, -112, -55, -49, 80, -113, -85, 18, -108, -45, -4, 112, -123, -4, 107, 8, 72, 35, 105, 44, 42, -75, -82, 56, 52, -43, 15, 79, -33, 70, 7, -38, -90, 67, 53, 37, -116, 84, -1, 77, -4, 66, -18, -23, 53, 63, 30, 6, -96, 4, -95, 12, -61, 64, 75, -85, -16, -100, -123, -58, -98, -5, 87, -107, -30, 106, 25, 67, 24, 43, -105, 5, -86, 15, -111, -68, -112, 114, -101, -107, 7, 31, 125, -33, -71, 111, -15, -71, 60, -55, 82, 105, 88, 10, -47, 133, 14, 125, 98, 119, 95, 19, -113, -136, 43, 6, 100, 52, 30, 5, -38, 74, -19, 115, -7, 51, -26, 23, -51, 101, 54, -110, -64, -85, -33, -5, -51, -114, 25, 120, 47, 129, 58, -76, -31, -41, 91, -138, 105, -109, 71, -95, 110, 95, 68, -11, -99, -42, -27, -35, 9, 64, -92, -63, -19, -125, 5, 45, 17, -49, 11, 96, -123, -88, -45, 69, 79, 16, -85, -16, -54, -58, -28, 53, 16, 75, 30, 118, -89, -120, 10, 85, 98, -51, 36, -13, 88, 101, -78, -88, -62, 94, -87, -49, 16, 115, 71, 86, 81, -8, 65, 72, -103, 72, 5, -27, 59, 43, 73, -25, 103, 55, -93, 64, -46, 21, 33, -21, 72, -29, -66, -45, 87, 18, 119, -111, -110, -3, 110, -96, -105, -74, 81, -67, -24, 67, -18, -104, 59, -46, -73, 101, -73, -122, -51, -48, 48, 50, 88, 62, 8, 93, -37, 70, 36, 61, -72, -120, -84, -103, 100, -84, -83, 90, -30, -110, 82, 80, 69, -1, 3, -85, 41, -87, -94, -86, 16, 89, -31, 62, -50, -47, 103, 87, 93, 37, -64, -38, -110, -60, -75, -109, -14, -61, -93, 120, 60, 83, -52, -120, 35, -91, 28, -111, 67, -51, -51, 12, 63, 110, 63, 68, -80, 62, 60, 50, 21, -115, 102, 119, -24, 101, -70, 30, 96, -91, 78, 120, -35, 10, 104, 112, 17, -113, 116, -93, 96, -9, 39, 23, -84, -118, 1, 81, -92, 14, -34, -64, 112, 8, -81, 92, 45, -121, 20, -80, -57, 19, 110, -106, -34, 102, 58, 123, -62, 29, 79, -116, -96, 4, -112, 26, -119, 75, 108, 103, 102, -9, 0, -91, 56, 9, -97, 108, -108, 62, 32, 61, 52, -33, -61, -68, -15, -59, 110, 60, -116, 6, -48, 114, -106, 122, 88, -73, -94, 6, 100, -109, 83, -20, -90, -110, -80, -78, 78, 80, -120, -28, 24, -95, 102, 20, -123, 117, 38, 52, 60, -38, 84, -110, -58, 62, -50, -81, 93, 12, -91, -104, -97, 11, -87, -69, 8, -6, -54, -38, -107, -115, 0, 42, -2, 105, 100, -55, 106, -73, -123, -22, 27, -70, -93, -59, -52, -69, -123, 58, -51, -115, 81, -15, 97, 11, 46, 80, -117, 21, -66, -85, -105, 116, 15, -75, -71, 14, 59, 75, -75, 100, -4, 90, -13, -92, -88, 5, 89, -51, -29, 91, 22, 51, -86, -114, -29, -117, 61, 87, -74, 6, 100, -116, 96, -10, -25, -60, 34, -109, -113, -85, 61, -105, -37, 46, -73, -110, 45, -29, -110, -52, -115, 112, -34, -62, 3, 34, -27, 49, -49, 18, -52, -60, 64, -46, 102, -17, 30, -39, -10, -52, -25, -46, -38, 94, -19, -74, 100, 16, -43, -32, -46, 62, -55, -86, 31, 115, -39, -22, 115, 89, 18, 89, 61, -83, 54, -22, -31, 94, 116, 80, -27, 7, -8, -5, 50, 24, 92, -16, -48, -83, -54, 117, 34, 9, 73, -31, -6, -98, -116, 74, 0, 43, -68, 62, -100, -37, 75, -43, -28, -49, 77, -30, -71, 48, -23, -55, 25, 18, -29, 64, 4, -40, 86, 26, 8, -111, -31, -103, -116, 93, -97, -35, 1, -99, -34, 19, -80, -86, -12, 95, -47, 19, -89, 22, -103, -19, -2, -87, -73, -91, 96, -82, -80, 72, 76, -33, 101, 39, -54, 51, -12, -78, -112, 105, -81, -92, -85, -95, 56, -28, -107, -36, -93, 51, -62, -33, 76, -138, 39, 67, 35, -119, 56, -15, -67, -3, 8, -112, -53, 106, 89, -31, -8, -80, 145, 147, -58, 54, -138, 91, 81, -36, 41, 0, -6, 25, 27, -148, 50, 120, -7, -117, 32, 78, -132, -13, -137, -41, -123, -46, 87, -6, 5, -56, 34, 45, -114, -9, 5, -62, 4, -6, 95, -48, -55, -97, -164, -58, 26, -55, -102, 118, 114, -101, 71, 59, -2, 74, -49, -27, 81, 38, 74, 95, 42, 50, 87, 33, 9, -24, -31, 74, -121, 62, 35, 70, 99, 35, 81, -8, -69, 73, -68, 64, -14, -79, 72, -23, -15, 95, -46, 109, -68, -98, 79, 12, 32, 111, -103, -110, 14, 107, 32, 70, -45, -81, 4, -2, 67, 12, 63, 3, -55, -111, 77, -92, -41, -73, -74, -49, -97, -52, 67, -127, 44, 83, 108, -4, 126, -115, 52, -55, -71, -11, -123, 46, 44, -12, -119, -120, -69, 114, 21, 82, -89, 91, -87, -61, -10, 101, -19, -18, -98, -98, -34, 71, -118, -108, -106, 86, -81, 26, 3, 104, 44, 81, -19, 67, -35, -62, 52, -97, -76, -106, 14, -1, 52, -110, -8, 115, 53, 15, -43, -64, 127, -7, 100, 110, 27, -83, -97, 88, 38, -9, 84, -62, -65, 116, -68, -92, 36, -43, -20, 50, -77, 14, 20, -48, 44, -9, -74, -100, -59, -118, 4, -82, -91, -70, 48, -69, -77, -111, -56, 119, -61, 5, 117, 13, -85, 59, -31, -70, -86, 85, -20, 59, -32, -44, 72, -70, 95, 38, -109, 0, -90, -125, 110, 78, 111, 89, -13, 107, -32, 75, -32, -12, -101, -62, 83, 46, -68, -80, -58, -30, 59, 6, -19, -41, 115, 63, 44, 52, -87, -46, -25, -50, 7, -87, -80, 40, -19, -101, -58, -11, -75, 126, 114, 5, 85, 112, 46, -105, 65, -16, 30, 112, -6, -89, 75, 8, 125, -108, -40, 98, 81, 28, 51, -113, 25, -113, -5, -20, 110, -55, -32, 29, -57, -15, -50, 16, 90, 20, 77, 112, 100, 100, -15, 57, 83, 94, 22, -37, 0, -25, 13, -24, -114, -94, 70, 73, -86, 62, 107, 108, 122, 20, -67, -30, -41, 56, -106, 16, 23, 88, -72, 5, -55, 29, 63, 28, 97, -33, 100, -38, -96, -11, -77, -23, -41, -48, 111, 11, 0, 13, -43, -15, 92, 29, -66, -107, -114, -110, 90, -76, 72, -15, -122, 52, 50, -51, 23, -31, -29, -108, -110, -19, -76, -14, 26, 89, -62, -103, -19, 75, -21, -74, 14, -7, -57, 122, 70, 62, 57, -114, -32, -94, -51, 34, -39, -79, 81, 37, -116, 94, -85, -98, -48, -78, -28, -74, 30, -91, 103, -104, -11, 31, 48, -100, 12, 88, 13, 116, -17, 71, -41, 78, -29, -52, -7, 31, 63, 1, 51, -79, 53, 114, 42, -90, -59, 91, 24, -120, -51, -84, 61, -4, -27, 81, -121, -38, 99, -22, -115, -96, 52, -104, 40, 77, -43, -62, -111, 11, -82, -28, -123, -74, 40, -92, 66, 48, -99, -68, 84, -9, 15, -79, 0, -70, 111, 89, 75, -98, 118, 21, -70, -16, -79, 51, 12, 11, 1, -86, 27, -36, -6, 36, -106, 57, 8, 111, -57, 72, 64, 76, 72, 95, 77, 113, 54, -41, 97, 116, 26, 80, 110, -12, -3, 82, 62, 7, 84, 116, 117, -19, -91, -111, 42, 118, 42, -50, 112, 100, -17, 61, 103, 25, 20, -64, -100, 122, 110, 61, -15, -9, 16, 14, 75, -62, -75, -72, 17, -53, -90, -35, -100, -67, -28, 44, 68, 26, 68, -83, -93, -6, 28, 105, 11, -47, -122, 77, 13, 94, -11, -25, -22, 103, 40, 0, -108, 122, 56, 43, 31, -30, -60, 114, 107, 38, -109, 16, -13, 63, -69, -83, 1, 43, 57, 119, -67, 116, -84, 85, -17, 86, 122, -25, -86, -86, 122, 103, 79, 13, -32, 88, 15, -109, 5, -54, 48, 96, -13, 84, 118, -50, 40, -54, 88, -45, 102, 115, -101, 60, -118, 3, -48, 104, 35, -104, -69, 97, 4, 48, 68, -86, 69, 86, -23, -102, -47, -113, -87, 36, 50, -54, 15, -99, 24, 49, -70, -12, -103, 82, -21, 2, 96, -101, -42, -52, -114, 30, 41, 101, -110, -50, -15, -96, -98, 17, 37, 69, -41, -7, 86, 110, 8, 47, -123, 75, 71, -67, 60, 6, 47, -43, -14, -20, 99, -67, -4, -104, 15, -10, -50, -47, 24, -95, -87, -16, -90, -20, -5, 55, 61, 12, -71, -29, -72, 113, -74, 115, 62, -114, -103, -69, 9, 41, -94, 0, -64, 66, 93, -67, -33, -86, 73, 114, -97, -98, -89, -55, -42, 30, 19, 7, -7, 11, 39, 104, 115, 0, -35, -36, -39, -24, 115, 97, 118, 0, 40, -2, 52, -97, 62, -113, 102, 103, -44, -39, -2, -108, -86, 120, -79, -53, -91, 77, -4, 23, 104, -55, -9, -25, -108, -44, 110, -46, 98, 19, 64, 122, -93, -102, 3, -51, -4, -36, -122, 84, -34, -56, -28, -15, -87, 96, 15, 67, -102, 0, -6, -113, 23, 53, -105, 16, -80, -3, 10, 5, -37, -58, 40, 94, 26, 64, -115, 112, 49, 19, -10, 14, -20, -88, 29, -56, -47, -30, 82, 25, -6, -75, 63, 9, -8, -109, -66, 112, -118, 13, -106, -104, 97, -34, -82, -3, 38, -11, -18, -116, 114, 8, 62, -104, 2, -95, -74, 31, -1, 84, -74, 31, -36, -35, -99, 23, 60, -96, -118, 121, 97, -113, 91, -103, -2, 91, -13, 111, -89, -9, -20, -112, 97, -26, -21, 51, 44, 6, 96, -49, 58, -116, -116, -8, -76, 0, -121, 29, 43, -16, -62, -70, 97, 4, 78, -104, 32, -18, -117, 71, -49, -13, -93, 113, -80, 80, 78, -69, -38, -35, 15, 60, -55, -46, 40, -100, -16, 44, -81, 107, -118, -107, -101, 55, -83, 37, -58, -85, -43, 92, -52, 53, 109, 93, -58, -95, -88, -36, 3, -80, -93, -114, -85, 81, -107, 66, 7, 48, -50, 85, 43, -123, -81, -114, 25, -61, 27, 0, -40, 59, 20, 51, -48, -14, 52, -20, -95, 86, -128, 51, -33, -65, 101, -44, 116, -82, 49, -98, 120, -110, -95, -109, 64, 108, -34, 115, -93, 13, 38, 78, 61, 38, -111, -43, -31, 73, -105, -40, -82, 100, -119, 6, 69, 46, -34, -8, -69, -2, -114, 44, -118, -86, 18, -108, -115, 44, -88, 0, -56, 96, -114, 111, 25, -57, 62, -77, -8, -78, 5, -34, -87, -11, -20, -44, 61, -119, -5, 43, -66, 108, -49, -58, -6, -42, 114, 88, -61, -81, -92, 5, -53, -123, -123, -65, -88, 29, -48, -98, -109, -119, 42, 52, -24, -93, 46, -58, 67, 83, 41, -67, -97, 98, -76, 111, -20, -62, 72, -107, -68, 9, -118, 89, -4, 102, -6, 46, -72, 16, 3, -111, 121, 16, -37, -15, -102, -121, -23, -97, 38, 116, 34, -83, 29, -52, 9, 34, 16, 79, 4, -26, -13, -97, -29, 13, 40, 117, 1, 103, -34, 22, -115, 22, -109, -79, 98, -104, -21, 50, -110, 111, 80, -106, 59, -108, -109, 51, -12, -85, -60, -74, -10, 77, 77, -40, -27, -78, -46, 99, 29, -98, -51, 6, -5, 81, 113, -97, -78, -106, -121, -27, -96, -11, 55, 30, 24, -28, 124, -13, 42, 16, 46, -92, -12, 115, -112, -96, 57, 102, 13, 45, 87, 4, -89, 77, -97, 58, -108, -52, 91, 46, -96, 36, -15, -93, -46, 51, -23, 50, 17, -71, -61, 59, -77, -107, 1, -6, 35, 110, 62, 78, 111, 57, 90, -118, -43, 99, 25, -14, 69, 27, 37, 26, 90, 74, 108, -11, 93, 84, 76, 118, 25, 20, 80, -63, 14, 50, -118, -111, 71, 48, 103, 88, 14, -97, -7, -113, 113, -44, -75, -110, 97, -67, 90, 75, 0, 57, -44, 113, 14, 60, 111, 63, -75, 105, 6, 40, 68, -69, 22, 54, -107, -42, -13, 50, 51, 38, -105, 66, -10, -47, -94, -36, -64, 54, 19, 44, -90, 51, 122, -62, 80, -34, 64, -19, 90, 78, -111, -122, -70, -106, 78, 46, -80, -9, 5, 45, -102, 99, 108, 27, -30, 0, -10, -112, -67, -38, 56, 18, 46, -2, 96, 55, -40, -37, 46, -34, 97, 85, 45, 17, 15, -118, 11, 61, 32, 114, -43, 3, -61, -31, 68, -118, -97, 96, -92, 49, -52, 119, -15, -64, -109, -34, 70, 22, -74, 33, 107, -26, 37, -37, -47, 65, 26, 103, 4, -50, -74, 42, -110, 17, 84, -14, 81, 103, 120, 43, -88, 10, 56, 76, -109, -62, -81, -22, 88, -98, 89, -17, 68, -29, 22, -122, 116, -89, -38, 41, -11, -106, 51, -27, 53, -86, -25, -79, -28, 62, 84, 72, -109, 77, -100, -87, -17, 16, -11, 94, 113, 10, 0, 110, -58, 35, 13, 39, 81, -11, 104, -31, -63, 6, 65, -73, 71, -11, -123, -12, 33, -93, -76, -90, -87, 80, -90, -11, -98, 14, -85, 8, -100, -66, 25, -5, -42, 78, 111, -6, -68, 105, 117, -43, -70, 71, -74, 24, 41, 7, -82, -101, 61, 96, -22, -12, 107, 29, 58, 8, -52, -5, 97, -117, -102, -11, 87, 26, 91, 116, -96, -47, -47, -44, -103, -37, 60, -36, -35, 8, 90, 43, -92, 95, 62, -43, -26, -105, 13, 85, -22, 99, -112, 10, 53, -40, 59, -4, 114, -48, 43, -59, -109, 23, 56, -63, -23, -8, 37, -51, -36, -89, 120, -78, 7, -86, -5, -51, 61, -27, -96, 63, 22, 29, 48, 0, -41, -63, -8, -27, 69, 22, 67, -98, -91, 75, 122, -48, -76, 10, 60, 27, 74, 89, 116, -58, 86, 87, 114, 1, 110, 6, 4, 25, 111, 96, -110, -45, -62, 74, -120, 32, 61, 64, 59, 12, 30, 45, -106, 93, 0, 72, 47, 5, 56, 76, 42, 12, -25, 1, -110, 96, -104, -77, -67, -31, 70, 50, 110, 113, -32, 56, -43, -9, 45, -12, -39, -19, -10, -33, -60, 99, 14, -46, -71, 47, 116, 113, -46, -2, -121, -54, 99, -117, -97, -53, 83, -119, -91, 54, -46, -73, 26, 100, -46, 61, 95, -74, 103, -11, -10, -69, 69, -41, 35, -55, 114, 41, -96, 61, 86, -19, -70, 97, 101, -37, 32, -118, -32, 57, -9, 38, -6, 41, -60, -69, 67, 13, 48, -111, 94, -117, 58, 89, -111, -15, 100, -88, -58, -18, -83, 128, -7, -70, -5, -78, 78, -17, -72, -117, 84, 66, 103, 12, 74, -56, 21, 72, -43, 55, 123, -74, -71, -126, 102, 39, -33, -116, 63, -95, -2, 90, 18, 8, 121, 11, 19, 1, -59, -54, 74, 10, -25, -38, 108, -21, 25, -130, -49, 81, 36, 0, 58, -52, -48, -93, -64, 64, -83, 40, -54, -104, -6, 97, -40, -16, -116, -104, 80, 13, 37, 1, -27, 61, -120, -65, -79, 105, -4, 28, -20, 55, -92, 15, -39, -3, -2, -10, -28, 52, 32, 110, -3, 29, -57, 76, 60, -92, 36, -72, -46, 12, -122, -60, -55, -33, -21, -95, -56, 39, -77, 61, 83, -111, 19, 12, 98, -122, 20, -8, -115, -83, -62, 44, -116, 87, -7, 114, -65, 98, 87, -114, 113, -82, 39, -102, -103, -123, 42, 74, 85, 13, -44, -114, 108, -33, -75, -6, 62, 10, -22, 6, 30, 17, -38, 39, -70, 10, -10, 102, 84, 71, 80, -122, -123, 120, -75, -88, -10, -7, -24, 10, 24, -83, -37, -49, -79, 122, -55, 47, -73, -52, 28, -99, -42, -30, -51, -12, -122, 52, -18, 73, -44, 60, 70, -100, 69, 1, 12, -19, 52, -107, 108, -50, 105, 19, 51, -65, -50, -56, 0, 28, -113, -9, 109, 40, -3, -23, 79, 4, 114, 27, -41, -22, 105, -76, -85, 114, -87, -46, 13, 14, 74, 46, 63, 70, -61, 32, 70, 100, -118, 11, 3, 38, -100, 111, -59, 92, 9, -29, 29, -77, -104, 116, -101, -57, -71, 10, -86, 85, -27, 81, -23, -40, 24, 66, 70, 46, -44, -6, -81, 43, 118, 73, -81, -74, -119, 33, 35, 24, -98, -76, 14, -64, 0, 104, 55, 68, -98, 113, -115, 69, -74, 21, 117, 113, -88, 100, 38, -64, 13, 23, -79, -20, 55, 56, 49, -45, 69, -51, -47, 24, 59, 52, -123, 67, 78, 81, -38, -84, 76, -59, 89, -64, -72, 120, -35, 49, 105, -109, -123, 1, 50, -82, 74, -118, -41, -20, -122, -58, 4, -47, 32, -69, -75, -40, 45, -112, 88, 60, 89, -69, -117, 95, 71, 107, -106, 121, -91, 102, 73, 21, 95, -24, 71, 52, -71, -72, 18, 55, -17, -64, -116, 120, 8, 7, -11, 95, 99, -116, -102, -95, 41, 85, 2, 1, -55, 85, 5, 55, 4, -70, 105, -59, 94, 68, 46, 85, 14, -5, 20, -102, 29, 75, -29, 123, 67, -59, 2, -103, 84, -71, 12, -10, 77, -13, -119, -23, 59, -48, -58, 57, -72, -76, 92, 8, -30, 75, -29, 44, 0, -49, -117, 59, -46, -37, -75, -70, 69, 12, -86, 77, -27, 53, -58, 71, 64, -67, 11, -10, 71, 75, 10, 36, 6, 79, 54, 63, 104, 53, -39, -1, 47, 55, 59, -37, -87, -20, 59, -121, 23, -42, -132, 113, 66, -115, -97, 74, 70, -99, -93, -84, -71, -54, -116, 76, 117, -111, 91, 11, 74, -59, 28, 42, -97, -37, -56, -19, 1, 34, 94, 30, 27, 88, -113, -32, -120, -10, 82, -5, 40, 17, -24, 29, 29, -15, -50, -110, 110, 70, -43, -82, -5, 61, 30, -51, -112, 41, 9, -79, 27, 108, 112, -90, -85, 29, -81, -111, -53, 123, 40, -38, -25, 26, 13, 83, 30, 95, -54, 80, 114, 77, -95, 83, -33, -44, -18, -108, -98, -109, 88, -67, -52, 98, -97, 34, 73, 64, -81, 20, 76, 58, -103, 83, 7, 28, 99, -106, 3, -98, 5, 48, -122, 64, 88, 0, 103, -65, -93, -9, -97, 79, -106, -50, -105, 92, 118, 2, 52, 95, -66, -20, -2, -87, 6, 18, -14, -97, -76, -76, -25, 29, -85, -107, -7, -94, -87, 27, -121, -72, 111, -122, 1, -43, 71, -116, -74, 90, 13, 96, 66, -116, 52, 29, -57, 13, -110, -8, -108, -91, 102, -68, 97, 27, -121, -83, 5, 29, 101, -23, 59, -30, 75, 81, -98, -126, 8, 111, 86, -53, -74, -50, 92, 115, 119, 59, 106, 27, 85, -7, 109, -86, -78, 84, -34, -83, 123, -17, -125, -112, -103, 0, 41, -44, 11, 19, 1, -76, -8, -103, -79, -133, -50, -126, -9, 115, 17, -10, -18, 76, 28, -102, -3, -115, 47, -70, -49, 56, -91, -47, -96, 31, 74, -44, 30, -115, 120, -8, -24, -96, -90, 126, 0, 29, -84, -50, 102, 53, 110, 110, -4, -49, -36, 44, -35, 19, 111, -11, 109, -54, -1, -107, -112, 81, -86, 16, 98, -14, -13, 91, -82, 18, 47, -119, 41, -3, 75, -118, -10, -6, -107, 37, -58, 50, -54, 35, 18, -8, -92, -110, 91, -101, -107, 94, -102, -110, -23, -96, 48, 15, -35, -29, 14, 91, -123, -94, 77, -115, -62, 60, -45, -85, 4, -19, -35, 1, 69, 40, -116, -20, -84, 44, -101, 14, 89, -62, 15, 28, 69, -46, -105, 23, 106, 33, 113, 80, -77, 5, -83, -57, 6, -39, 10, 111, 51, 78, -22, -78, 11, 70, 50, 40, -80, 82, -37, 20, 18, 30, 84, 51, 18, -80, 111, -119, -65, -73, 41, -66, -10, 111, 52, 23, 53, -41, 32, 71, -111, -72, 23, -34, 85, -6, -78, 62, -51, 5, -86, 0, -99, 11, -105, -103, 39, -48, -115, -123, 122, -19, 101, -90, -39, 13, 119, -18, 100, -27, -28, 6, 78, -113, 83, 18, 34, -6, -44, 8, -121, -124, -78, -64, 29, -29, 40, 56, -59, 18, -107, 87, -80, 62, -46, -38, -96, 8, -121, -100, 36, -51, -43, -47, -67, 62, -1, -79, -123, -67, 108, 85, 56, -60, -73, -7, -95, -107, -71, -6, 53, 106, -86, -95, 51, 37, -124, -111, -75, 4, 37, -13, -76, -97, 12, 28, 47, 67, 100, -98, 65, -47, 102, 67, 40, -115, -92, -10, 45, 54, -50, 50, -16, 29, 84, -91, -1, -45, 64, 109, 106, -89, 83, 25, 43, -54, 0, 46, -112, -58, 74, -66, 60, -71, -83, 109, 28, -73, 0, 96, 116, -105, 86, -6, 94, 62, -10, 15, 63, 105, -118, -28, 32, -120, -45, 28, 69, 42, -118, 58, 23, -24, -115, -49, -5, 59, 84, 116, -116, -26, 106, -81, -51, 16, 53, 89, -116, -97, 67, -47, -11, 22, -19, 93, 111, 51, -15, 101, -86, 60, 8, 48, 34, 12, -123, -117, -62, -50, 98, -63, 25, 48, -98, 11, -104, 78, 69, 91, -58, 46, -120, 70, -44, 20, -100, -106, -71, 49, -61, 49, -13, 59, -69, -60, 111, -58, 109, -32, 116, 64, 4, 75, -48, -60, -43, -88, -92, 17, 62, -79, -95, -51, 114, -48, -60, -84, -2, -51, -60, -116, 52, 0, 8, 31, -53, 34, -11, -97, 65, -42, 109, 47, 8, 108, 62, 115, 19, 90, 36, -91, -88, 58, 107, 41, -120, -92, 67, 90, 89, -112, -101, 67, -38, -114, 1, 76, 69, 106, 114, -6, 121, 94, -18, 93, -65, -95, -121, -44, -95, -20, -65, -119, -4, -124, 3, -110, -111, 112, -9, 79, 111, -4, -14, -66, -42, 110, 9, 42, 98, -96, -93, -107, -118, -3, 45, -10, 48, 0, 91, 90, -5, -42, -43, -107, 113, 39, -63, 6, -44, 38, -122, -80, 56, 68, 4, -46, 42, -47, -64, 11, 115, -113, -25, -87, 121, -83, 95, -60, 12, 106, -37, -34, 71, 44, -54, 98, -79, -95, -33, 99, 3, -4, -44, 59, -56, -14, -24, 114, -89, 77, 63, 34, -66, 45, -23, -49, -41, 119, 66, -60, 53, -59, -77, 96, -56, 48, -43, 43, -59, -105, 51, 4, -35, -47, -101, -34, 14, -63, -56, 21, 92, -112, -78, 56, 11, 63, -43, -125, -49, -43, -48, -85, 71, 1, -55, 89, -118, 66, -107, -10, -29, -25, 102, -69, 94, -79, -109, 10, 83, 77, 14, -108, -121, 13, -9, -98, 100, -118, 2, 114, -85, -120, -90, -75, 100, -93, -46, -56, 75, -69, 17, -79, -112, 91, -3, 37, -4, 109, 127, 95, -51, -8, 46, -72, 46, -14, -17, 15, 99, -88, -58, 26, -72, 110, 48, 15, 118, -49, 29, 32, -43, 97, 68, 16, 103, -45, 73, -99, 63, 29, -18, 20, 94, 0, 77, 37, 73, 23, -59, -4, 95, -97, -74, 103, 22, -47, -87, -84, 94, -115, 113, -100, -40, 90, -90, 50, 5, -85, -65, 37, 80, 58, 74, -49, -29, 55, -123, 22, 106, -81, 114, -48, -19, 14, -119, 3, 90, -4, -75, -57, 87, -84, 89, -60, 40, -126, 122, 26, 91, -30, 45, 121, 85, 69, -54, 52, -108, -20, -116, 67, 62, -85, -95, -81, 85, 91, -31, -69, 35, -113, -46, 67, -96, 57, 13, 47, -6, -36, -125, 100, 103, 120, -110, 77, 50, 4, 122, 48, -39, 63, -23, -97, -96, 103, 95, -46, -62, -56, -57, -106, -122, 101, -23, 18, -48, 50, -77, -36, 82, 39, -48, -88, 10, -3, 36, 0, -114, 12, -34, 62, 25, -37, 34, -93, -28, -16, 69, -58, 91, -54, 61, -106, -45, 80, -89, -51, 120, -9, -86, 28, 43, 99, 35, -84, -67, -116, -102, -104, -77, 58, -80, 6, -89, -108, -10, -65, -84, 86, 107, -22, -10, 85, -3, -101, -13, -4, 34, 53, 32, 52, -23, 106, -104, -8, -32, 43, 40, 96, -117, 71, -28, -113, 37, -62, -42, -41, 20, -2, -119, 58, 115, 93, 111, 34, -33, -82, -2, 56, 75, 100, -71, -77, -56, -51, 81, 2, -22, 73, 67, -79, 111, 57, 44, -1, 82, -56, -92, -36, 16, 5, 117, -6, 88, 73, -102, -77, -105, 65, -3, 3, -25, 106, -11, 47, 98, 36, -90, 115, 116, -117, 26, -10, -71, -101, 103, 107, 27, -40, 102, -93, -16, -47, -73, -35, -15, 71, 73, 34, -3, 42, 41, -2, 58, 32, 54, -30, 45, 73, -21, 65, 22, -93, 48, 1, -123, 6, -112, 74, -63, -45, -76, -123, 18, -125, 99, 98, -30, 55, -29, 40, 15, 5, 15, 107, 70, 2, -1, 36, -120, 66, -117, -72, -14, -41, -86, 19, 65, -31, 97, 37, -102, -27, 82, -25, -77, -78, 1, 80, 116, -125, 83, -60, 110, 31, 82, -35, 40, -99, 13, 19, -62, -30, -48, 14, -85, -90, 76, 6, -63, 58, 83, -13, -39, -19, 112, 122, 63, 62, -15, -67, 21, 76, -72, 115, 85, -39, 32, 54, 2, 119, 37, 43, -76, 61, -120, -100, 28, -67, -40, 51, 3, -27, 112, 39, -14, 17, -62, -16, 64, 116, 39, -26, 45, -58, -88, 65, 81, -30, -32, 97, 49, 121, 31, 20, 6, 85, 122, 10, -117, 46, 93, -67, 52, -20, -87, -80, -20, 2, 85, -82, -84, -24, 84, 17, -2, 50, -77, 74, -59, -52, 123, 116, -48, -45, 21, 107, -61, 28, 54, -53, 22, 106, 89, 66, 49, 46, 85, 110, -20, -64, 37, -26, -84, -15, 31, 65, 42, 18, 74, -60, -29, -119, 42, 32, -7, 43, -69, 20, 107, 120, -62, 118, -43, -57, -58, 10, -6, 3, 69, 66, -17, 111, -32, -48, 0, 10, 25, 74, -8, 59, -65, -84, -78, 34, -18, 30, -94, -74, 84, 15, -34, -11, -28, -95, 110, 97, -12, 57, 105, -90, -1, -75, 117, -42, -109, 104, 11, -121, 53, -9, -53, 119, -13, -17, -65, -37, -10, 81, 58, 89, 72, 118, 12, 77, 21, 56, -106, 50, 37, -96, 26, 7, 76, -54, -98, 41, 113, -107, -93, -46, -58, -72, -74, 31, 90, 72, 38, -79, 55, 88, 27, 119, -9, -92, 19, 91, -57, 108, -10, 5, -93, 81, 48, 122, 0, 43, -66, -53, -119, 119, -32, 61, 1, -111, 31, 72, 99, 54, 118, -123, -25, 84, -67, -11, 111, 39, 19, -58, -84, 48, 112, 0, -21, -43, 100, -75, 65, 52, -2, 0, -64, -113, 29, -67, 29, 44, -51, 78, -120, -26, -12, -48, 73, 71, -90, -41, -93, 98, -91, -89, 63, -106, -15, -27, -108, 49, -39, -107, -118, -7, 22, 102, 65, -113, 64, -25, -6, 58, -31, -17, -14, 113, 88, 4, 97, 40, -72, -46, -41, -26, 116, -76, -40, 108, 90, -42, 34, 13, -71, -77, -16, -40, -64, -20, 41, 10, -34, -1, 85, -120, 19, 35, 83, -105, -55, -115, -4, 78, 40, 19, 22, -54, 4, 108, -1, -35, 24, -111, -48, 29, -72, 116, -111, -80, -29, -74, -101, 31, 104, 7, 118, -16, -106, 86, -78, -97, -28, -47, -65, 22, -74, 54, -45, 1, -49, 4, -36, -102, -20, 45, 61, 0, -37, -117, 62, -58, 55, -71, -107, -22, 98, 29, -23, -11, 93, -42, -120, -38, 102, -45, -120, -94, -55, -109, 19, -63, -23, 103, -122, -104, 104, -112, -56, -9, -112, -51, -59, -27, -119, 105, 16, 7, 89, 4, -68, -101, 59, -16, -7, -43, -50, 53, 2, 106, 60, -42, 102, 83, -106, 44, 120, -56, -48, 57, -105, 24, -7, 16, -61, -28, -56, 90, -1, 6, 87, -46, 119, 57, -121, 32, -21, -64, -10, -71, -25, -121, 11, 33, 44, 80, 23, 120, 83, 96, 85, 43, 123, 105, 15, 36, -117, 28, 85, -21, 111, -36, -102, -14, -77, 52, -88, 16, -89, 73, 14, -67, 49, 9, -46, 83, 48, -52, 33, 42, -23, 83, 110, 27, 58, 16, 1, -28, 102, -43, 108, 27, 12, -111, 3, 107, -58, -98, 18, -101, 98, 63, -59, 41, 86, 88, -74, -49, -50, -42, 16, -106, 88, -105, -50, 115, -32, -78, -53, -21, -71, -76, 92, -104, 122, 28, 108, -27, -25, -103, 37, 95, -75, -32, -51, -32, -11, 40, -12, -64, 73, -5, 98, -41, 16, 5, -11, 25, 10, 27, -54, 46, 115, -36, -23, -44, 56, -112, -80, 21, 38, -114, -79, -57, 30, 87, 111, 86, 13, -2, 6, 62, 97, -70, -42, -64, 2, 121, -45, 112, 104, -43, -31, -39, -27, -107, -72, 9, 10, -100, -32, 61, 43, 117, 89, 27, -84, 93, 76, 59, 117, -123, 16, -45, -89, 40, 88, -12, -123, -110, 0, -45, -126, 95, -68, 18, -115, 27, -89, 34, -33, -24, -117, -35, -67, 111, 1, -4, -74, 41, -3, 75, 67, -101, 57, 103, 75, 46, 37, -39, -35, -41, 117, -54, -2, 99, 83, -35, 61, 111, -115, 85, -68, -61, 76, -92, -83, -91, 47, 113, -61, -108, 50, -68, 24, -54, -31, 76, -64, -6, -85, 103, -32, -50, -114, -63, -33, 31, 77, -16, 30, 42, 101, 59, -53, 48, -33, 42, 49, 116, 68, 33, -105, 56, -23, -91, -123, -46, 24, 15, 0, -80, 102, -75, -97, 46, -52, -49, -40, 103, 42, 49, 38, 26, -35, 48, 90, -17, -28, 1, 28, 88, -101, 29, -24, 0, -108, -25, 31, -115, -2, -96, 112, 17, -92, -55, 96, -89, -17, -27, 102, 101, 25, 31, -49, -2, 2, -112, 112, -34, -56, 0, -118, 85, -118, -60, 105, 26, -74, 101, 0, -85, -13, -52, -61, -28, 5, 4, 114, -35, 117, 10, -79, -110, 4, 113, -16, -3, -13, -34, 120, -43, 71, 61, 52, -26, 58, 69, 3, -98, 45, -61, -2, -75, -51, 71, 54, 49, -65, 104, 68, 102, -87, -19, -66, -115, 44, -90, -41, 41, -94, -63, -52, -35, 51, 54, -82, -75, -100, -43, -56, -69, 26, 118, -64, 50, -3, -92, 68, -28, 109, 112, -13, -95, -123, 48, -103, 42, 89, 57, -96, 30, 21, 77, -74, 37, -91, 100, 98, 52, -4, -127, -41, -46, 59, -29, 18, -23, -75, 9, 96, -98, 22, 46, 26, -56, 30, 99, -20, 50, -59, 119, 111, 35, -114, 98, -97, -44, -46, 0, -20, 73, 84, 88, 30, -69, 39, -81, -69, 25, -115, 79, -74, -36, 75, 117, -21, 75, 75, -57, -11, -1, -53, -90, -68, -71, -5, -81, 48, -14, 119, 114, -69, -93, -77, -9, 86, -75, -84, -115, 71, -7, -93, -118, -71, -81, 5, -40, 45, -67, 85, 56, -55, 65, 22, -36, -63, 54, 17, -51, 56, -36, -29, -39, -81, 18, 83, -122, 63, 93, -104, -54, 9, 0, 84, 5, -7, -81, -102, -96, 28, -51, 108, -58, 45, -23, -55, -112, 54, -59, 105, 125, -4, 46, 91, 108, 112, 105, 15, 25, -30, 107, -107, -106, -64, 46, -28, -75, -44, 109, 19, 30, -82, 58, 19, 85, -4, -56, -20, 42, -122, -136, -108, 107, -46, 64, 59, 31, 29, -116, -107, -80, 1, -57, 31, 116, 90, -102, -37, -119, -118, 99, 55, -60, 40, -17, 33, -81, 42, -45, -112, 20, -39, -34, 28, -53, -112, 53, 43, 115, -114, -95, 66, 38, 111, 65, -64, 64, -68, -103, -9, 62, -96, -125, -96, -68, 36, 58, 20, -49, 26, 44, 17, 8, -31, 122, -101, -57, 101, 64, -115, 39, -97, -68, -57, 24, 49, 99, -39, -95, 113, 10, 67, 3, -12, 55, -82, -51, -121, 92, -20, -123, -65, 112, 62, 78, 54, 72, 102, -16, 116, 90, 6, -93, 40, 101, -69, -49, -52, 68, -70, 59, -48, 108, 49, 67, -40, 33, 73, -15, -73, -58, -65, -31, 95, -79, -46, 2, -94, 4, 124, -94, -48, 122, -77, 36, -49, 123, 57, -33, 99, -64, 43, 107, -28, -57, 82, 4, 94, -54, 27, -102, -81, -30, -31, 69, -42, 76, -106, 97, 39, 69, -103, -69, 33, -114, 34, 30, -72, 95, -126, -82, 41, 54, -117, -94, -68, -121, -63, 67, -62, 35, -33, -18, -26, -84, -33, -116, -84, 116, -92, -9, 36, -26, 29, 109, 53, 97, -99, -146, 18, -4, 95, 84, -23, -5, 32, -69, -50, 84, 23, -84, -30, 90, 118, 47, -111, 100, -38, -118, 22, -25, 124, 54, -68, -54, 37, -50, -82, -92, 74, 39, 21, 99, 118, 59, 121, 101, 150, 60, -69, 49, -56, -84, 107, -72, -81, -30, -111, 55, -42, -78, 29, -46, 149, -14, -48, -27, -75, -29, -82, 31, 27, 2, 7, 20, 19, -3, -111, 75, -44, -66, 128, -55, -43, 84, 83, 107, -74, 64, 16, 54, -13, -112, -85, -50, 114, -124, -8, 47, 8, 119, -36, -10, 96, -139, 122, -83, 105, -37, 5, -33, -1, 114, 84, -5, 100, -88, 73, 97, 51, 9, 3, 52, -7, 39, -29, 19, 70, 103, 74, 121, -112, 113, 39, -6, 72, -91, 10, 90, -18, -31, 122, -64, 52, -82, 22, -53, -119, 88, -81, -42, -14, -51, -65, 50, -120, -47, 56, -49, -113, 122, 1, -15, 80, 25, 31, -5, -6, 50, -46, 68, -36, -94, 55, -78, 78, -71, -48, -35, -88, 58, -2, 0, 122, -95, -12, -31, 6, -20, -45, -31, 45, -91, -7, 20, 117, 100, 38, 92, 95, 108, 97, 86, 42, -110, 64, 16, 102, 79, 2, -40, 42, 5, 44, 54, 93, 93, 4, -111, -69, 6, -50, 0, 40, 17, -76, 110, -95, 106, -114, -58, -61, -50, 57, 11, -39, -43, 86, -28, -121, 46, 21, -19, 41, -43, -39, 98, 17, 97, 50, 57, 69, 98, 96, -28, 122, -13, 34, -53, -6, 113, 21, 52, 114, -110, 70, -26, -62, 17, 9, 33, -68, -62, -77, -117, -11, -58, -81, 64, 27, 1, -48, -107, -18, 47, -89, -87, 19, -79, -74, -89, 0, -6, -90, -96, 101, -26, 125, -48, 32, -99, 55, 54, 69, 42, -8, -36, 78, -80, 57, -62, 111, -90, 41, -4, 122, -56, 16, 109, 80, 73, 21, -11, 90, 10, 64, -8, 36, -104, -16, -35, -9, 54, 21, 15, -101, -103, 58, -98, 78, 48, 117, -92, -40, -76, 70, -19, 0, -7, 37, 67, -84, -99, -41, 119, -11, -112, -37, 27, -43, -76, 16, 60, 44, 45, 94, -26, 43, 69, -112, 14, 2, 119, 80, -100, -71, -98, 101, 94, -63, -35, 121, -69, 64, 65, -118, -121, -41, 80, -42, -5, 61, 73, 107, 114, -95, -1, 122, -76, 42, -70, 96, 101, -31, -100, -67, 84, -47, -67, -57, 121, -3, -78, -13, -2, 16, -20, -6, 104, 65, 96, 18, -44, 49, -106, 13, 62, -28, -66, 19, -8, 45, 43, 88, -89, -9, -111, 81, -19, -40, -88, 89, -116, 37, 114, -20, 94, 70, 96, -105, 93, 45, -31, -22, -105, -60, -109, 123, -60, 101, 52, -98, 74, -47, 39, 12, -119, 27, -112, 78, -47, -53, -44, -18, -112, 24, 109, 37, 17, 115, -37, -25, 24, -84, -118, -102, -23, 101, 80, 97, 109, -55, -78, 70, 99, -92, 73, -58, 6, -8, -21, 20, -129, -31, -89, -16, -34, -60, -116, -38, 89, 8, 47, 88, -92, -77, -51, -119, -112, 73, 36, -41, 42, 1, 81, 114, -10, -12, -7, -58, -59, -18, 80, -125, -11, -21, 23, -6, 35, -76, -117, -18, 50, 92, -6, 0, 119, -36, -29, 95, -21, -8, 5, 60, 24, 77, 39, 49, 90, -48, 126, 87, 2, 94, -110, -6, 13, 37, 106, 108, 7, -89, 5, 108, -103, -107, 46, 124, 47, 77, -105, -72, -4, 45, -54, 21, -111, -63, -95, -34, -88, 114, 100, -3, 106, -94, -15, 52, -44, -70, 56, -48, -39, -40, -104, 46, 62, -54, -111, -109, 29, 90, -92, 56, -4, 90, -37, 43, -60, 118, -9, 16, -122, 20, -42, -120, -14, -5, -120, -48, 93, -31, 59, 4, 116, 121, -49, -119, -89, -41, 39, 62, -104, 105, 26, 61, -109, 3, -53, 15, 85, -120, 87, -97, -39, -21, -84, 75, 102, -33, 107, 25, -78, 25, 76, 124, 51, -63, 93, 99, 97, -75, 34, 75, -86, -102, 13, -104, 112, -68, -111, 57, -34, -41, 61, -93, 34, -41, 17, 27, 21, 59, 30, -20, -70, 8, -100, -7, 113, 40, -93, -41, 99, 102, 115, 60, -21, 89, -80, 18, -35, -104, 19, -78, -78, -29, -37, 5, -116, 82, 75, -102, 93, -63, 26, 33, 73, 112, -87, -90, 85, 10, -49, -38, 6, -107, 108, -99, -45, -20, 71, 56, 85, 41, -28, -9, -45, 91, 123, 105, 83, -4, 73, -36, -90, -12, -82, 82, -72, 59, -37, 47, 85, 91, 78, 9, -5, 0, 112, -58, 41, 44, 12, 74, 106, 103, -14, 53, -76, -16, 115, 62, -73, -36, 52, 66, -115, 31, 71, 22, -115, 55, -11, 116, 2, 119, -91, -27, 1, -54, 47, 23, -119, -68, -5, 114, 32, 91, -109, 22, 113, 31, 7, 4, -61, -119, -52, -65, -89, 122, 37, 86, -89, -20, 104, -123, -53, 16, 10, -75, 103, -67, -90, -10, 56, 77, -8, 25, 62, -32, 116, 57, -28, -6, 101, 88, -15, 90, 31, -92, 29, 42, -61, -90, 104, -26, -96, 47, -62, -121, -100, 62, 7, -41, -19, 10, -107, 65, 40, 96, -65, 56, -49, -106, 106, 73, -29, -26, 117, 104, -44, -81, 7, -19, -50, -96, -92, 0, -15, 39, -130, -54, -133, -97, 105, 86, 91, -3, 69, -68, 46, 68, 120, 106, -99, -123, -109, -97, -104, 123, 112, -121, -101, -6, 32, -55, -44, 112, 116, 77, -96, 31, 35, -52, 8, -54, 57, -96, -35, 119, 111, 2, -85, -79, 69, 107, 109, -73, -14, 44, -117, 34, 50, -113, 36, 91, -13, -59, -38, 111, 122, -53, -82, -4, -27, 106, -47, -93, 33, -110, 89, -11, -14, -83, -104, -21, 38, 50, 114, 10, -79, 4, 85, -8, -103, -43, 6, 66, 61, -88, 57, 38, -48, 66, 105, -104, 84, -105, 66, 0, -40, -115, 34, 0, -50, 68, 58, -29, -36, 38, -67, 118, -60, 26, -87, 11, 74, -1, -20, 113, -51, -65, -35, 81, 59, -74, 19, 110, 73, -78, 112, 24, -27, 36, 1, 92, 34, -117, 9, -27, -69, -19, 77, 85, 52, 76, 51, 38, -46, -89, -48, 50, -87, 39, -37, 76, -70, 113, -75, 43, -3, 33, -14, 88, -47, 30, -119, 12, -88, 102, -6, 117, -80, -20, -53, -120, -55, 114, -13, 61, -116, 116, 69, -24, -109, 52, -58, -118, -6, -103, -28, 79, 58, 103, -50, -15, -112, -52, -60, -82, -42, 26, -104, -16, 94, 81, -32, 65, 48, -37, -50, -51, 24, -32, 20, 100, 28, 110, 38, 125, 19, 16, 26, 70, -47, 116, 64, 17, -85, 33, 16, 28, -17, -56, -33, 33, -41, 95, 97, 56, -109, -18, 37, -29, -74, -89, -12, 127, -79, 51, 56, 36, -80, 15, -78, 95, 53, 71, 13, 49, 108, 83, 95, 6, 27, -67, 18, -63, -61, -22, 15, 44, -49, -50, 59, 97, -123, 122, -43, 106, -63, -81, 92, 76, 16, 100, -106, 17, -17, 67, -116, 118, -119, -33, 88, 114, 25, 2, 48, -11, -20, -9, 100, 36, -39, -42, -33, -38, 83, 18, -24, -20, 21, 57, -89, 92, -29, -105, 91, 51, -85, -109, -39, 14, 115, 77, -73, 117, -99, -5, -27, 85, 46, -104, -94, 78, -82, 65, -7, -4, -48, -2, -102, -50, -37, 80, 82, -26, -40, 62, 11, -86, -6, -32, -51, 99, -116, -26, 54, -69, 26, -63, -109, 99, -10, 56, 6, -75, -62, 65, 40, -29, -110, 94, 86, -80, 72, -43, 99, -51, -41, 96, 117, 50, 36, -20, 77, -8, -5, 89, 31, -85, 23, -48, -116, 16, -122, -102, 92, 20, -14, -68, -46, -23, 76, -55, 45, -104, -50, 103, -89, -51, -56, 122, -30, -29, 88, 52, 66, 72, 19, -28, 83, -5, -43, 52, -78, 60, 0, -85, -111, -20, -62, 62, 60, 23, -100, 88, -52, -41, 87, -81, -72, -81, -114, 21, -60, 78, 4, -17, -6, 122, -73, -6, -92, 32, 16, -43, 85, 99, -103, 90, -64, 27, -47, -58, -46, 115, -76, -82, -54, -115, -6, 22, 66, 121, 32, 84, 18, -57, 23, 89, 11, -90, 13, -111, -51, -91, -40, -108, 74, -36, -45, -78, -28, -19, -56, 38, -51, 48, 45, -70, 35, 86, -20, 15, 16, 2, -78, 34, 121, -27, -82, -19, 55, -68, -61, -77, -41, -118, 76, 11, 95, 88, -6, 88, 25, 57, -48, -59, -14, 56, -43, 79, 65, 43, 17, 35, 48, 86, -11, 72, -114, 105, 59, -37, -13, -29, -107, 39, 13, 32, -122, 80, 1, -89, -111, -47, -63, -118, -6, -103, -15, -49, -51, -1, 95, 14, 91, 98, 64, -103, 113, -80, 70, 56, -66, 108, 115, 61, 64, 14, -33, 42, -19, -1, 83, -97, 77, -42, 62, 12, -53, 76, -58, 117, 123, -72, -39, 5, 70, 66, 16, 75, 51, 109, 56, 71, 7, 53, -45, 93, 103, 123, -43, 68, -51, 43, -54, 108, -62, -71, 110, -17, 50, 109, -95, 103, -40, 47, 61, -94, -64, -15, -107, -98, 111, 94, -61, 97, -120, 85, 10, -29, -36, -75, 104, -75, -64, -22, 67, 117, -90, -31, -108, 122, 34, 0, -17, 17, -60, 47, -38, 14, 100, -71, 102, -77, -107, 29, -85, -110, -42, 47, 114, -35, -11, 15, 50, -113, 73, 22, 92, -29, -64, 98, 48, -18, -90, 8, 95, -22, 92, -2, 54, -59, 50, 99, -65, 18, -26, -21, 93, 103, -118, -92, 31, -120, 91, -72, -83, -27, -37, -105, 77, -115, 4, -94, 23, 116, 121, -28, -67, -19, 74, -12, -46, -86, -24, -93, 39, 7, 103, -17, -72, -73, 78, 82, 7, -11, -123, 49, 0, -59, 101, -67, 35, 58, -64, 84, -100, 26, -56, 26, -102, 10, -83, -122, 74, 39, -39, -65, 41, 32, -52, 19, -33, 82, -87, -101, -29, -79, 83, 15, -100, -40, -19, 121, -10, -71, -25, 102, 6, -78, -89, 7, 8, 111, 18, 105, 34, -32, -93, 26, 0, -26, 75, 59, -20, 90, 106, -98, 8, -46, -53, -58, -83, -15, -25, 1, -92, -47, 49, -46, 52, -101, 85, 102, -23, 45, 51, 77, -77, 106, 80, -32, 42, 69, -113, 0, -85, 54, -44, 79, 56, -9, -62, -32, -85, 49, 32, -62, -28, 66, 101, -104, 94, 34, 103, 48, -58, 93, -64, 24, -19, -106, -6, -1, 112, 103, 81, -8, 75, 91, -44, 78, -81, -105, 121, -41, -17, 105, 93, -96, 77, 37, -38, 37, 8, -44, -67, 42, -19, -7, -110, -19, 63, -87, -32, -115, -118, 63, 83, -111, 52, 10, 11, 14, -7, 21, -67, 12, -60, 105, 32, -109, 38, 58, -23, 122, -65, 119, 98, 54, 44, 36, -7, 45, -69, -99, -33, -51, 24, -38, 44, 22, -44, -120, 21, 85, 71, 22, -123, -117, -113, 1, -90, -23, 4, 109, -67, -17, 1, -11, -95, -73, -8, 70, 107, -32, 37, -75, 87, 113, 48, -17, -61, 94, 56, -89, 22, -79, -14, 23, -83, -59, 102, 84, -44, 6, 47, 48, -62, -8, -65, 107, -85, 90, -98, -120, -12, 97, 19, 63, -36, 97, 73, 48, -22, 43, -104, 91, 50, -17, 59, -41, -70, 38, 46, -24, -93, 113, 74, -101, 9, 8, 92, -100, 83, 8, -27, 14, 113, -40, 50, -68, 10, 11, 45, -17, -66, 93, -49, 20, 67, 71, -59, 57, 6, -16, 110, 68, 70, 94, -75, -105, -122, -20, 24, -12, -17, -110, 81, 10, 17, -7, 59, 122, 5, -68, 18, -52, -2, 56, 59, 117, 10, -13, -19, 20, 108, 63, 29, 23, 21, -22, 123, 93, 44, 85, 108, -111, 83, 109, 35, -120, -35, -10, -38, 4, -105, -74, -107, 92, -28, -56, 2, -83, -94, -60, -41, 2, -40, -117, 73, 60, -93, -45, 75, 118, 23, 76, -36, -53, 50, 120, 58, 43, -35, 22, 114, 42, 55, -109, -115, 82, 120, -2, -57, -108, -78, -62, 19, 29, 9, -71, 110, -21, 20, 61, 114, -36, 52, -79, -44, -23, 68, -75, 43, 102, 89, 84, -100, -77, 67, -93, 94, 92, 69, -47, 104, -112, -79, 51, 86, 59, 49, -114, 97, 5, 34, -18, -56, -98, -97, -15, 100, -86, -27, 115, 57, 54, -33, 78, -45, 5, -73, 35, -71, -102, 22, 52, -111, 0, 11, -33, -43, -38, -49, 59, 60, 20, 28, 121, 100, 36, -50, -117, 27, -38, 111, 58, 88, 115, 19, -23, 78, 109, 3, 61, -82, 114, 118, 17, -75, 42, -50, 94, -35, 40, 104, -61, 54, -18, 30, 106, 1, -59, 27, 90, -93, 67, -49, 118, 66, 98, 43, -88, -94, 27, -100, 98, 102, 39, -42, 8, -78, -118, 35, 39, 96, -49, 49, 59, -119, 80, 101, 119, 61, -120, 39, -25, -89, -28, -66, 35, 58, -61, -43, -13, -105, 4, 112, -3, 41, 71, -58, -77, 56, 53, -1, -6, 59, -35, -106, -35, 82, 109, 26, 1, -71, 93, -61, 102, 101, 74, -108, 4, 102, 88, 37, 45, 55, -62, 6, -26, 109, -72, -97, -93, 39, -108, -89, -4, -47, 68, -47, 24, -106, 19, 35, -85, 90, -30, -70, -57, 48, -41, 13, -51, -102, 99, -38, -41, -115, 39, -115, -72, -86, -72, 92, 66, -94, 103, -54, 62, 121, -3, 59, 115, -90, -28, -22, -122, 95, 35, -4, -93, 100, -85, -82, 3, -103, -105, -83, -107, 81, 92, -115, -41, 30, 115, 71, -88, -101, 3, -46, -3, 30, -62, 71, 94, -51, -91, -51, -27, 121, 54, -41, -11, 122, 92, -111, -25, -51, 61, 96, -63, -19, -18, 62, -60, 9, 41, 100, -3, 118, -102, -114, 88, 6, -56, -116, -35, -56, -107, -41, -38, -64, -49, 40, 57, 50, 49, -101, -80, 104, -56, -82, -99, -85, -111, 115, 78, 109, -93, -21, 14, -44, 0, -92, -46, -64, 54, 81, -43, 10, 121, -65, -77, 105, 76, -40, -11, 86, -11, -95, -94, 32, 1, -120, -67, 40, 64, 20, 113, 56, 119, -92, 86, 47, 47, 102, -15, 86, -15, 31, -94, 90, 44, 21, 20, 54, 61, 39, -37, 64, -104, 18, -118, 74, 4, -81, 29, -104, -43, -72, -65, -75, -20, -34, -105, 11, 49, 45, -4, 12, 17, -73, -31, -23, -118, 94, -8, -88, -125, -31, 16, -41, -43, 101, 95, 2, 50, 112, 27, -109, -121, 71, -11, 55, -56, -120, -63, -88, 53, -70, -122, 114, 99, -42, -90, 74, -63, 16, -103, 18, 117, -19, 43, 116, 82, 36, 113, 76, 10, 82, 22, -18, 43, 9, 99, -49, -102, 16, 13, -61, 117, 102, 95, 21, -19, 98, 3, 59, 23, -19, 7, -40, 80, 67, -60, 70, -62, 0, 96, 29, -118, 114, 31, -76, -47, -68, -106, -5, -57, -79, 13, 117, -24, -85, -86, -53, 112, 8, 31, -58, 73, -36, -113, 30, 110, 105, 69, -108, 73, -18, 12, 37, 103, -112, 86, -93, 32, 85, 92, -28, -115, -55, 68, -79, -78, 89, -108, -93, -40, 51, 119, -73, 83, -118, 110, -18, -76, -53, 114, -113, -36, -44, 6, 104, 21, 35, 62, -66, 46, -47, -54, -97, -107, -14, 5, 99, 112, -5, -112, 115, -65, 39, 40, -33, -59, 48, -38, -121, 49, -106, -9, 12, -81, 117, -68, -8, -42, -58, -57, -63, 46, 49, -12, 36, -26, 78, 78, -4, -55, 113, -97, 49, 83, 51, -42, 21, 36, 123, -29, -109, -50, -88, 41, -76, 73, 77, -2, -37, 8, 121, -61, -41, 61, -103, 105, 53, -34, 114, -16, -13, 37, -111, -24, 18, 22, 120, -87, 54, 107, -67, 123, 69, 20, 120, -8, 2, -108, 14, -119, 11, -36, 113, -105, 0, 77, 23, -56, 54, -116, 22, 79, 32, 72, -76, 20, -97, -51, -47, 24, 38, 5, -7, -96, 67, 53, -12, -3, 99, 113, -88, -99, 121, -108, -117, 3, 69, 63, -41, 43, -50, -58, 85, -25, -33, 44, 74, -10, 109, -63, 81, 110, 26, -98, -112, -118, -27, -108, 82, 56, -78, 33, 25, -6, -22, 19, -43, -91, -45, 60, 83, 105, 79, -41, -113, -10, 82, -45, -75, 89, -55, -95, 42, 0, 74, 74, 117, 56, -31, 39, -93, 0, 46, -1, -67, -81, -4, 67, -114, -117, 22, 106, 45, 108, -19, 42, 41, -47, -115, -78, 91, 72, 81, 99, 64, -118, 38, -79, 0, -77, 0, 114, 88, -70, 118, 43, -92, -55, -37, 114, -123, -12, 63, -88, 114, 40, -1, 28, -48, 55, -45, -72, 116, -54, -28, 1, -2, 2, -60, -115, 56, 88, 119, 97, 69, -57, -59, -66, -73, -103, -109, -49, -102, -25, 110, 107, 100, -41, -93, -60, 118, -5, -76, -43, -75, -48, -86, 49, -92, -52, -95, -18, 50, -48, 25, 32, -33, 100, 16, 0, 0, -20, -4, -39, 50, 15, 51, -43, 134, -40, 37, -36, -116, 1, 16, -59, -7, 6, -38, 35, 107, -26, -120, 72, 58, 70, -76, 53, -20, 9, -42, -53, 109, 35, 36, 97, 68, 114, 124, -6, 24, -87, -12, -121, -9, 41, 80, 107, 25, 120, -83, -23, -43, 51, -1, 112, 22, -119, 29, 88, 25, 92, 96, 64, 93, 62, 29, -96, -51, -108, -7, -55, 78, 79, 96, 58, 78, -35, 10, 42, 31, 47, -70, 47, 76, 69, -65, -93, -108, -87, 37, 19, 69, -99, 25, 0, 99, 24, 114, -58, 4, -114, 115, 70, -77, -40, -24, -45, 80, 76, 120, -11, -77, -40, -27, 30, 93, -33, -52, 8, 116, 39, -104, 5, 23, -100, 44, -112, -28, 30, -4, -18, 116, 92, 69, -13, 65, 54, 14, 8, -36, -57, 66, -2, 92, 53, 40, -99, -100, -75, 88, 0, 105, -58, -106, 59, -13, -89, -26, -86, -93, 28, 115, -2, 3, -48, 26, 97, -27, 81, 114, -10, 38, 79, 42, 110, 90, 71, -4, -112, -57, -60, -4, -30, 97, -109, 79, -22, -79, -99, 106, 44, -70, -8, -93, -5, 12, 121, 5, -11, 104, 106, 65, 94, 115, -18, -64, -13, 111, 43, -7, 39, -21, 33, -14, -55, 9, 48, 35, -62, -9, 35, -108, 45, -58, 56, 4, -18, -45, -2, 115, -47, 110, 14, -43, 49, 28, -58, -8, -6, 40, -52, -45, 105, 17, -87, 25, -37, -107, 36, -57, 91, 4, 95, -13, 96, 113, -39, 97, 19, 123, 119, 104, -11, -30, -77, -79, -67, 97, 20, -78, 16, 49, 56, 103, -35, 94, -81, 63, 34, -22, 68, 8, 56, 40, -109, -69, -37, -68, -111, 103, 89, -55, 2, 116, -49, 22, -10, -43, 79, 36, 66, -68, -1, -25, 43, -33, -13, 35, 98, 50, 107, 118, -119, 115, 66, 102, 19, 101, 25, 79, -72, -16, -46, -42, 102, -43, 82, 108, 150, -100, -49, -55, -33, -97, 113, -81, 95, 30, -35, -65, 105, 50, -103, -95, 104, -40, 82, 102, 35, 74, -51, 97, -87, -55, -16, -122, 98, -113, -93, 39, 17, 54, -50, -39, 11, 10, -136, 98, -93, -74, 63, -67, -117, 57, -26, 96, 50, -146, -102, 36, -68, -20, 82, -98, 29, -81, -57, -74, 22, -45, 10, 20, 116, -30, -57, -28, -90, -85, -2, 23, -14, -124, -36, 97, 6, 5, 93, 56, -86, 120, 117, -99, 115, -83, 47, 94, -121, 9, 17, 17, 110, -4, -33, -84, -88, -31, -101, 57, 34, -6, -20, -85, 57, -84, -55, -74, 78, -115, 50, 75, 9, 116, 51, 60, 49, -59, 98, 9, 25, 3, 111, 26, 111, 103, 9, -70, 83, 95, 71, 31, 26, 83, 61, 7, 122, 57, 71, -44, 9, 1, 5, -61, -72, 19, 26, 47, 12, -57, 53, -123, 50, -110, 29, 112, -22, 102, 97, -117, -33, 40, -44, -26, 102, 4, 50, -35, -2, -118, 103, -42, 6, 92, -5, -96, 57, -77, 103, 54, 11, -119, -53, -55, 46, 117, 78, 100, -10, -27, -93, 42, -57, 91, 37, -51, 119, -98, 0, -25, 119, 109, 63, -67, 116, 0, -11, -57, -12, -77, -33, 61, 31, 94, 52, 59, -55, -2, 37, 31, 84, -105, -46, -45, 20, 109, 16, -120, -76, 43, -65, -46, 30, -47, 58, 37, -30, -4, -50, -55, -2, 13, -36, 68, -11, 3, 69, 84, -100, 34, -21, -46, 47, -17, -91, 83, -49, 64, 74, 122, 64, -53, -39, -106, -50, -14, 53, 58, -54, 112, -19, -37, -16, 89, -29, 89, 96, 76, 64, 73, 101, 85, -78, -80, -45, -50, -107, -82, 117, -13, 33, -92, 30, 36, -45, 95, -77, 26, -70, 123, -48, -12, 97, -32, 41, -92, -45, -78, -70, 31, 72, -23, 79, -47, -117, -78, 63, 122, -92, -104, -91, -114, -78, -14, 81, -27, 91, -59, -90, -9, 0, 34, -59, 19, -54, 95, -40, 81, -121, 61, 109, 92, -85, 22, 102, 69, 12, 3, 66, 99, 24, -97, -15, -104, -25, -103, 106, -33, 29, 97, -58, -36, -51, -117, -5, -81, 107, -81, -98, 67, 55, 34, 93, -68, -6, 46, -95, -83, -11, -24, 58, 2, 43, 54, 5, 57, 65, 53, -105, -17, -92, 110, 17, 82, 78, -115, 93, 88, 66, -53, 111, 41, -68, 110, 40, 98, -31, 71, -32, 10, 114, -115, 20, 4, 63, 81, -106, -107, -77, 88, -7, -102, 123, -113, 117, -84, -24, 85, -90, -14, -51, -101, -51, 70, 110, 11, -62, -21, -20, -30, 95, 10, 20, -65, 47, -38, -112, 44, -9, 26, 64, 0, -103, -49, 42, -55, -18, -102, 40, 66, 6, 81, -2, 102, 34, 15, -65, 47, 93, 6, -99, -59, 64, 0, -76, -117, -52, 35, 47, 50, -116, -92, 58, -57, 84, 9, -29, -122, -89, -30, 18, -104, 116, -109, -86, 38, -77, 52, -71, 1, 58, 49, 9, -102, -62, 18, -108, -30, -42, -109, -111, -8, -2, -11, -101, -27, 89, 58, -47, -18, -66, 0, -105, 112, -70, -65, -3, -116, 81, -100, -116, 49, 67, 0, 93, -100, -115, 50, -120, 94, 106, 43, 104, -86, 55, 118, 19, 64, -7, 70, 107, -35, 82, 81, 45, 34, 64, 3, -36, 90, 35, -104, -95, 63, 12, -43, -54, 96, -81, 32, -31, -115, 73, -86, -31, -115, 116, -47, -102, -19, -17, 63, 17, 102, 100, 33, 122, 68, -73, -93, 23, 3, -36, 12, -6, 91, 48, 102, -28, 64, -87, 23, -75, -46, -111, 2, 111, -86, 19, -30, -63, 48, 5, -4, 123, -42, -94, 16, -62, -5, -40, 97, -106, 89, 57, 63, -117, -98, 42, -52, 106, 57, -33, -78, 84, -118, -97, 70, -29, 50, -119, -109, -8, 24, -79, 29, 51, -122, 118, -101, -15, -122, -52, -111, -106, 69, 39, -15, -57, -104, 25, 0, -117, -67, 32, 91, 60, 111, 79, -35, -20, 65, -42, -88, 69, -13, 105, -71, -6, -61, 108, -53, 122, 75, -36, 92, -49, -79, -43, -28, -81, -72, -50, -71, 34, -49, 110, -41, 46, 25, 88, 53, 7, 55, 123, -99, -48, 117, -47, -119, 103, 70, 120, -49, 36, -91, 35, -16, -93, 8, 90, 91, -61, -37, 86, 0, 97, -25, -82, 48, -44, -117, 86, -46, -93, -54, 0, -9, 12, 55, -7, 75, -106, 63, -111, -104, -89, -22, -67, -80, 43, 49, 71, -121, -81, 75, 47, -28, 97, -8, -14, -52, -12, -22, 94, -29, 112, -106, -93, -22, 85, 87, -121, 55, -56, 46, 8, -104, 24, 41, 90, 96, -107, 106, 11, -83, 100, -93, 1, -8, 51, 54, -98, -74, 112, -74, -65, 82, 38, -73, 37, -6, 85, -54, 53, 40, -114, 36, 116, 29, 87, -42, -99, 86, -98, 30, 8, -52, -108, -56, -45, -44, 108, 2, 122, 56, 68, -62, 17, -9, 67, -88, 25, -112, 20, -80, -31, 108, 50, -48, -2, 57, -6, -44, 88, -118, -111, -52, 32, -113, -67, -24, 23, -45, 48, -109, 36, 96, 18, 28, -6, 9, -88, -71, -88, -58, 94, -66, 102, 42, 87, 39, 77, 97, -15, 46, 57, 104, 71, 119, 3, -35, -2, -67, -4, 48, -104, -120, 39, -52, 81, -91, 82, 58, -28, -8, -60, -27, 118, -67, 79, 21, -48, 40, -12, -41, 91, 24, 2, 8, 64, -94, -106, -30, 96, -112, 29, 42, -110, -27, 51, -97, 44, -27, -19, 60, 31, -52, -68, -56, 105, 64, -61, 57, -47, -83, -95, 90, -37, 98, -6, 6, 98, -63, -107, -83, -9, -93, 31, 90, -32, -9, 117, -86, -104, 34, 116, 72, 113, 39, 75, 48, -12, -99, 15, -78, -41, -27, 37, 64, 36, -52, 78, 0, 85, 60, -117, -15, -52, 80, -53, 71, -37, -79, 6, 6, 17, 87, -25, 8, 13, -70, -55, 83, 111, 47, 86, 90, 54, 78, -91, -122, 17, 115, 33, 80, -64, 69, 98, -111, 32, -110, -30, -52, 3, 103, -63, -67, 76, 22, 53, -65, 1, -104, -51, 3, 49, -28, -43, -102, 37, 62, -72, -97, -98, -49, 68, 35, 105, -86, -120, 89, 87, 32, 111, 41, -106, 43, -2, 77, 73, 0, 19, 108, -109, -5, 3, -32, 67, -85, 66, -63, 108, -108, 110, 9, -99, 52, 54, -72, -115, 67, 95, -73, 73, -43, 108, -48, -54, -123, 32, -106, -109, 0, -83, 79, -54, 63, 46, -80, 72, -59, 59, -81, -75, 81, 53, 73, -66, -59, 23, 47, 59, 123, 80, -27, -101, -68, -11, -90, 108, -89, -64, 54, 26, 32, 43, -6, 62, 116, 87, 17, -77, 43, 79, 25, 53, 104, 48, -103, -105, -20, -45, 100, 11, 14, 32, 8, -47, 61, 103, 30, -114, 52, -25, 90, 73, -1, 55, 67, -32, 76, -4, 35, -86, -19, 6, 109, -104, 21, -63, 122, -61, -122, -119, -100, -32, 89, -27, 32, 67, 45, -111, -97, -125, -80, -21, -44, -10, -33, -83, -108, -65, -112, -57, -94, 28, -10, 19, 84, -23, 65, -55, -109, 38, -51, 77, -38, -21, -72, -106, 113, -52, -37, -47, 37, 32, 24, 55, 116, 10, -7, -74, 73, 71, 13, 75, 35, -122, 94, 37, -41, -106, -119, 91, 19, -112, 24, 15, -54, -65, 82, -51, 49, -91, 48, 8, -67, 26, 128, 31, -77, 105, 107, 55, 90, 27, -104, 125, 4, -117, 111, -77, 73, 23, 56, -82, -57, -116, -119, 21, 51, 108, -94, -56, -33, 22, 35, -65, 28, 101, -82, 98, -121, -79, -46, -8, 50, -72, -35, -120, 37, -55, 45, -9, 114, 102, 41, -100, -106, 112, 118, 20, 39, 82, -112, -121, 25, 3, -49, 111, 95, -30, -61, 86, -61, -16, 20, -40, -3, 47, -28, -44, -52, 109, -10, -43, 75, 21, -63, -66, 18, -131, -95, -44, -62, 22, -80, -72, 22, 53, 120, 99, 104, -71, 108, -32, -91, -90, -115, 40, 8, 67, -84, -97, 63, 34, -88, 90, -15, -1, 23, 119, 92, 14, -108, -82, -68, -9, -108, 114, -95, -100, -111, 17, 92, 104, 2, -31, 97, 95, 38, 12, -60, 93, -117, -51, -9, -11, 15, -76, -128, -8, -39, -32, -8, -14, 105, 13, -126, 51, -68, -48, 27, -64, -100, -77, 28, -116, -32, 21, 67, -30, -28, 40, 22, 73, -43, -64, 95, 97, -130, -20, 8, 92, 85, -120, -28, -19, -22, -99, -16, -115, 123, -76, -56, -55, -96, 9, 81, -41, 14, -107, -101, 100, 59, 63, -6, -109, -119, -60, 21, 81, -101, 105, 44, 37, -69, -74, -97, 54, 3, -30, 59, -51, -31, 40, 49, 81, -52, 87, -58, -37, -89, -46, 62, 115, 52, 41, 35, 78, 90, 103, -3, 74, 93, -38, 76, 14, 61, 66, -55, -57, 73, 97, -29, 61, -33, 4, 113, -57, 37, 54, 88, -7, -104, 73, 72, -13, -78, -83, -52, -87, 92, 19, -46, -41, -43, -103, -53, 39, -27, 115, 117, 114, -123, -1, 43, -72, -49, -2, 121, 0, 76, -5, -26, 123, 38, -94, -11, 13, 119, -16, 104, -120, -50, -32, 23, -93, -7, -110, 21, -116, -56, -4, 27, 100, 72, -115, 7, 29, -53, -93, 107, -15, -100, -99, -107, 62, -80, 34, -10, -60, -16, 15, 92, -89, -21, -27, -72, 70, -81, 27, -59, -89, -39, -73, 16, -36, 84, -122, 108, 100, 1, -119, -64, 8, 112, 90, 83, -109, -26, 57, 41, -69, -24, 20, -117, -57, 42, -47, 119, 98, -50, -67, -8, -91, -16, 0, 18, -49, -4, 86, 53, -121, -23, 114, -96, -98, -51, 60, 111, 58, -46, 116, 80, -111, -27, 26, 14, 104, 32, 33, 35, 59, 66, -15, 69, -89, -64, -102, -52, 18, -96, -85, -106, 79, -58, 112, 107, 95, 59, 97, -70, -33, 99, -105, -64, -87, -80, 110, 39, -68, -57, -43, 41, 8, 102, 23, -86, 89, 5, 33, -24, 24, -92, -71, 104, 22, 52, 120, -102, 29, -85, 91, -10, -4, -12, -20, 35, 5, -111, -42, 97, -3, -79, 66, -4, 49, 50, -45, 88, 72, -26, 3, -94, -6, -43, 54, -27, 86, -56, -2, -122, -91, 93, -69, -23, -99, -63, 66, 8, -56, -63, 75, -30, 110, -122, 28, -58, -73, -7, 48, 27, 100, -78, -42, -2, 122, -34, 76, 30, 93, 24, -63, 8, -60, -72, 8, -52, -5, -92, 106, 94, 4, -71, -78, -20, -70, 17, 26, 4, 82, -80, -22, -84, 101, 48, 93, 48, -115, -73, -99, 127, -15, 104, 104, 75, 21, -58, 25, -107, 57, 38, -100, -41, 43, 91, 47, -28, 84, 14, -112, 27, -115, 22, -101, 37, 88, -59, 5, 105, -32, 48, 42, 102, -7, 41, -53, -76, 106, -50, -122, -18, -111, -92, 87, -59, -41, 100, -117, -63, 74, 46, -7, 13, 76, 33, -95, 95, 105, 89, -76, 30, -76, -12, -34, 93, -70, 32, -65, 68, -10, 29, 64, 88, -119, 64, 27, 101, -27, 114, -78, 73, 86, -11, -102, 19, 51, -21, 15, 75, -32, -56, -82, -60, -119, 72, 0, 128, 49, -77, 27, 56, -48, -3, -103, -8, 5, 87, -92, 91, -98, -62, 2, 81, -98, -94, 75, 57, -117, 56, -73, 98, -99, -23, -44, 71, -98, 61, 54, 46, -16, -118, -29, -15, -88, 109, -88, 37, -35, 112, 122, 10, 112, 79, 98, 105, -104, 105, -50, -9, 93, 73, -23, 10, 95, -19, 36, -24, -5, 72, -2, 43, -48, -23, -108, -26, 8, 58, -106, -56, 105, -74, -119, 103, 18, -24, 107, 36, 66, -20, -42, 74, -5, 100, 70, -27, -111, -90, 56, 37, -65, -121, 10, -27, 90, 54, -67, 95, 80, -114, 79, 59, 9, 53, 37, -44, 70, -49, 52, 42, 116, 35, -73, -120, 30, -98, -48, 97, -54, 87, 59, -84, -108, 77, 50, -103, 9, -69, -36, 117, 17, 99, -99, -26, 14, 86, -40, -47, -4, -44, 52, -8, -20, 101, -77, -102, 34, 15, 14, 21, 115, 122, 84, 9, -80, -63, -73, 22, 118, 56, -63, 16, 67, -92, -21, -105, 99, 95, -23, 94, -88, 74, -70, -41, -63, 61, 46, 108, -42, -65, -17, 87, 46, -62, 92, 53, 32, 88, 31, 118, -3, 108, -31, 36, 89, 71, 41, 123, 91, 116, -2, 58, 1, -115, 118, -95, -22, -111, 12, -97, -51, -33, 24, -81, -43, 84, -73, 74, 104, -6, -25, 75, -3, 4, 90, -59, -41, -84, -88, -82, -98, 23, -46, 86, 77, -41, 62, 68, 28, -18, 74, 26, -102, 49, -47, 90, 46, 123, -66, -14, -36, -119, -74, 98, 12, 8, 85, 87, 46, -87, -18, 5, 36, 99, 83, -121, 62, -22, -52, -11, -106, -98, 77, -63, 80, -108, 95, -16, 105, 16, -106, 56, -29, 117, 2, 74, -20, 45, 93, 93, 92, 103, 98, 42, 69, 64, 39, -29, -8, -44, -99, 113, 66, -40, 84, 0, -30, 50, 59, 30, 46, 74, 85, -28, 31, 82, 94, 114, 14, -95, -109, 67, -37, -76, 11, -62, 10, 54, 67, -123, 31, -18, 46, 117, 56, 52, -5, 55, -53, 62, 74, 26, 115, 13, -57, 7, -2, 2, 98, -50, 0, -85, -101, -105, 109, 38, -79, 72, -125, -55, -113, 22, -122, 90, 63, -125, -39, 112, 25, -15, 117, -58, -49, -16, -45, 52, -19, 17, 67, -40, 71, -49, -89, 16, -110, 110, 5, -112, 58, -70, 17, -67, 24, -82, 24, 94, 76, 38, -58, -116, -23, 91, 23, -38, 108, -93, 54, 76, -76, 110, 78, 69, 85, 90, 96, -51, 22, 63, -2, 54, 53, -48, 98, -23, -80, -120, 73, 108, 64, -24, 15, -103, 96, 27, -41, 67, 55, 99, -22, -49, 74, -73, -43, -37, 53, -75, -79, -41, -70, 72, -34, 9, -90, -49, -65, -100, 100, -55, 16, -38, 1, 13, 21, 102, 79, 5, -6, -2, 7, -33, -50, -51, -87, -38, 27, 94, -19, 18, 95, -100, 20, 20, -23, -15, -47, -96, -53, -12, 107, 44, -68, 85, 102, 116, -34, -5, -38, -27, -94, 19, 55, 85, -67, 42, -76, 107, -101, 54, -5, 88, -18, 32, 34, -96, -122, -9, -71, 92, -6, 0, -97, -3, 98, -86, 100, -80, 3, -12, -51, 90, 67, -38, -90, 103, -52, 18, -94, -82, -77, 57, 111, 41, 47, 76, -109, -103, 26, 31, -121, -36, -91, 116, -31, -80, -121, -88, 96, -71, -51, 46, 68, 71, -97, 75, 26, -73, 80, -38, 94, -69, -70, 118, 53, 14, -118, 35, 71, -50, -66, 103, -35, 25, -26, 77, 108, 9, 102, 65, -24, -104, -66, -65, 9, 63, -27, -78, -7, -100, 78, -41, 102, 32, 108, -94, 121, 115, -119, -28, -6, 69, -100, -76, 88, 76, 56, -92, -46, -14, -110, -11, -92, 25, 107, -72, 108, -28, 49, 104, 25, 12, -122, 53, 73, 1, -11, -92, -32, 84, 97, -44, 121, 52, 97, 48, 8, 103, -121, 27, 99, 24, -43, -101, -1, 81, 49, 73, -19, 45, -56, 50, -92, 62, 59, -71, -16, -110, 42, 110, -109, 72, 53, -17, -15, 8, 81, 116, 88, 52, -76, -80, -59, -9, 57, -21, 88, 108, -74, -107, 51, 35, 48, 97, 35, -51, -41, -71, -88, -1, -17, -121, 122, -53, 95, -19, 21, 115, 66, 20, -121, -84, -29, -17, -109, -115, 88, -109, 106, 90, 110, 67, 47, -68, 83, 74, -7, 80, 103, -123, -41, 43, 93, 3, -4, 85, 42, 106, -17, 4, 95, -125, 116, -17, 4, -41, 21, 86, 65, 7, -74, -48, -21, 42, 30, -31, 94, -4, 110, 38, 6, -80, -72, -81, -113, -34, 103, -82, 96, -81, 99, -35, -74, -47, 29, -50, -113, -22, 62, -90, 7, 24, -42, -110, 71, -87, -66, 105, 83, 0, 22, -100, -125, -56, 59, -53, 122, -18, -110, -99, -62, 29, 90, -81, -48, -104, -46, -37, 14, -28, -61, 95, -70, 24, -58, -116, 55, -122, 118, -38, -60, -120, 94, 87, 26, -103, -64, -113, 68, 40, -50, -38, 79, -123, 109, 16, 108, 21, 27, -77, 97, 89, -39, 90, -70, 64, -7, 80, -39, -84, 68, 9, 52, 46, -61, 53, 68, -100, -119, 11, 107, -37, -23, -122, 24, 58, 26, -28, 55, -97, 94, 90, 97, -117, -46, 96, -5, 100, -57, -34, 111, 66, -111, -74, 60, -118, -12, 104, -71, -23, 1, -6, 64, -69, -34, -15, -11, -86, -32, 38, 59, 101, 7, -115, -76, -83, -48, 64, -104, -80, -89, -31, -8, -64, -115, 2, -43, -52, -29, 97, 110, 76, 13, -74, 107, -3, -105, 95, -4, -21, 37, 29, -76, 117, 80, -69, -56, -54, -4, 58, 5, -42, 89, -29, -21, 84, 47, -28, 116, -13, 61, -6, 71, -47, 100, -76, -20, 11, 102, 34, 23, -46, 34, -106, 0, 0, -98, 90, -62, -109, 38, -56, -81, -50, -76, 103, -60, -63, 75, -44, 46, 61, 56, -21, 25, -88, -97, 7, 7, -88, 43, 72, -12, -9, -76, 3, -4, 4, 50, -56, -37, 14, 67, 83, 12, -92, 47, -81, -33, 79, 7, -97, -41, 74, 51, -20, -109, 17, 17, 68, -104, -43, 81, -6, -51, -25, 14, -6, 51, -91, -92, 41, 86, 68, 47, 156, -56, 95, -23, -106, 49, 21, 14, 48, -15, -141, -81, -80, -153, -103, 117, -63, 29, -49, 23, 104, 57, -55, 67, 23, -70, -61, -149, -113, -22, -111, -59, -46, 55, 38, -20, -66, -2, -114, 16, -63, 45, -105, 1, 42, 27, 1, 63, 21, 10, -48, 80, 65, -104, 117, 11, 70, 115, 70, -82, 61, -80, -14, -116, 0, 31, 71, -30, -44, 122, 22, 0, 122, -42, 10, 50, 58, 53, 33, 102, -70, 48, -31, -104, -34, 89, 27, -11, -74, 0, 31, 44, -7, 42, 119, -21, 49, -51, 27, 19, -5, 82, -120, -54, 120, 121, -42, 75, 34, 59, -14, -59, 95, -47, -41, -56, -5, -30, -38, -64, 50, -1, -21, 111, 40, 79, 11, -50, 3, -49, 2, 46, 12, 85, 41, -1, -94, 104, 115, 42, -116, 38, 105, -70, -41, -65, -118, -62, -18, 40, -92, -108, -103, 64, 23, -85, -32, 121, -119, -57, -13, 112, -61, 58, -43, -12, -109, 60, -62, -52, -41, -71, -31, -61, -28, 113, 69, 18, 49, 108, 91, -22, -68, -55, -105, 42, 43, -5, -100, -26, 122, -121, -99, -39, -9, 63, 10, -16, 119, -23, -122, -84, -17, -121, 115, -35, 69, -111, 72, 44, 21, -92, 72, 66, 114, 63, 39, -106, 86, 106, -5, -58, -60, -54, -3, -54, 19, 3, 78, 10, -34, -47, -23, 41, 82, 90, -116, -1, -83, -38, -11, -123, -25, 98, -85, -50, -72, 68, 78, 124, -6, 76, -9, 109, 130, -44, -105, 93, 79, -86, 60, -33, -7, -98, 79, -100, -91, -36, 97, -104, 92, -105, 5, -85, 31, -96, 27, 13, -96, 110, 22, 92, 3, -23, 73, 41, -91, -5, 81, 101, -43, -99, -72, 19, -106, 109, 73, 14, -72, 105, 24, -117, -62, -18, 115, -106, 41, 57, 101, -119, -34, 70, 99, 9, 117, -8, 8, -92, -74, 108, 58, -12, -118, 49, 112, -50, -119, -64, -1, -52, 37, 107, 56, -34, 35, 80, 24, -31, 91, 92, -79, -12, -49, 28, 19, 18, -10, 28, -101, 38, -110, 102, -70, -11, 115, -95, -96, 115, -39, -26, -79, 19, -26, -45, -26, 118, 31, 68, -97, 101, 70, 87, -14, -1, -13, 109, 63, -106, -82, 46, 60, 90, 1, -121, 47, -79, -17, -18, 22, -19, 118, -9, 119, -60, 46, 102, 122, -27, -69, -109, 50, -16, 24, 31, -107, 40, 83, 28, 27, 43, -28, 17, -5, 41, -118, 62, -96, 11, 32, -10, -110, 29, 109, -78, 100, -10, 99, -107, 112, 10, -113, 108, -118, 28, 81, -100, -87, -79, -36, 1, -103, 66, -5, -46, 24, -2, -60, 54, 86, -96, -104, -10, -5, -113, 114, -15, 10, -10, 2, 130, 177, 44, -73, -22, 99, 57, 61, -148, 40, -46, 108, -41, 25, 86, 78, 37, -34, -108, -64, -82, -192, 135, 95, -10, -45, 106, 72, 68, -60, 35, -5, -111, 32, 84, 173, -73, 16, 94, -173, 105, -101, -50, 0, 67, 66, 40, 6, 124, -77, 135, -70, 112, 119, 177, -92, 54, -56, 117, 77, -59, -3, -1, 7, 33, 84, -32, -62, 94, 123, -38, -29, 70, -74, -91, -63, 22, 19, -104, -88, -82, -49, 82, -114, 12, 70, 89, 80, -8, 5, -20, 44, -13, -118, -63, -78, 52, -1, -116, -96, -8, 106, -9, 96, 68, 118, -39, 2, -110, -53, 104, -50, -60, 39, 62, 18, -15, -76, 25, -98, -32, 110, 58, -114, 119, 35, -80, -62, -100, -81, 94, -82, 21, 21, 54, -38, -103, 51, -26, 32, -104, -121, -82, -61, 19, -80, 93, -69, 95, -2, 37, -113, 36, 2, -72, 10, -13, 2, -70, -38, 114, -75, -16, -73, -91, -80, -39, 14, 108, -8, 116, 71, 26, 46, -70, 70, 73, -46, -26, 25, -112, -61, -91, -84, -2, 49, -84, -37, -31, 118, 20, -71, 18, 118, -36, 89, -48, 38, -85, -54, 73, 70, 70, -79, -6, 87, -104, 55, 121, 119, -113, -5, 56, 24, 93, 91, -1, -40, -25, -45, 107, 12, 52, -17, -46, 98, 7, 102, 47, 76, 4, 37, 50, 52, -58, 12, 66, 69, 25, -111, 58, -113, 7, 106, -20, -100, -111, -39, 102, -47, -83, -42, -81, -78, 53, -33, -88, 29, 76, -60, -117, -64, -120, -113, -22, -2, -8, -56, -86, 86, -99, -39, -111, -57, -11, -88, 82, -4, 111, -31, -112, -42, -92, -16, 33, 41, 7, -94, -25, 36, 53, 16, -26, -56, 16, 59, 12, 53, -121, 43, -92, 78, -109, 101, 10, -97, -97, 52, -88, -106, -63, -20, -74, 103, -110, -71, 43, -49, 94, -68, -78, 79, 2, -15, 57, -78, 98, 62, 39, -87, 84, -23, 73, -18, -10, -103, 36, -108, -104, 103, -86, 26, -89, 6, -121, -105, 11, -121, -42, -2, -121, -82, 42, -4, 65, 39, 86, 115, 55, -23, 25, 20, -12, 66, 55, 81, -28, -13, -4, 8, 100, 40, -123, -14, -8, 122, 31, 67, -97, -83, -106, 0, -40, 25, -73, 16, -85, -67, 59, -60, -99, -42, 115, 19, -25, -18, 120, 55, -89, -62, 72, 85, 39, 68, 2, 116, 7, -54, -26, -43, -45, 32, 26, -84, -59, -26, 26, 23, -76, -102, -1, -38, -27, -112, 76, -120, 55, -28, 13, -3, 33, -79, 41, 45, -84, -109, -122, 24, 86, -55, 32, -56, 89, 60, 71, 67, 54, -54, -93, -80, -112, 92, -68, 93, 111, 27, 52, -30, -44, -111, -76, 49, -77, -31, 105, -117, 43, 115, -26, -8, -30, 95, -39, 72, 52, -60, -18, 60, 39, 105, 34, -35, -13, -100, 91, -52, -115, 80, 47, -32, -33, -48, 101, 26, -53, -75, -102, -89, 116, 109, -24, 64, -114, -62, 84, 18, -54, -102, -17, 25, 102, 84, -48, 14, 18, 121, 60, 78, 106, -85, -40, -19, 58, -6, 70, 122, -12, 93, -113, -27, -100, -20, -78, -17, -96, -76, -24, 15, 32, -97, -73, -66, -81, 25, -117, -25, -109, -19, -58, -121, 43, 116, -115, -74, -17, -17, -60, -19, -19, -31, 18, 10, -65, 117, -22, -115, -73, -90, 39, 106, -49, 113, -77, 10, -62, 23, -51, 119, -60, 64, -28, 11, 53, 64, -29, 82, -118, -120, -74, 96, 55, -15, 99, -1, 80, 94, -2, -105, 11, -83, -90, -73, 88, -88, -74, -35, -31, 87, 91, 54, -46, -92, 57, 40, -11, -39, 41, 50, -43, -115, 8, 59, -29, 69, 13, -78, 11, -56, 17, 36, -100, 88, -36, 48, -16, -42, 54, -112, -29, -112, 4, -119, 97, 17, -86, 72, -88, -75, 109, -45, -4, 107, 6, -116, -84, -58, 62, 79, 95, 67, 54, -123, 86, 80, -1, -66, 49, 41, -79, -44, 7, -99, 96, 118, 0, 41, -79, 0, -120, 35, -88, 55, 31, -61, 66, 98, 107, 38, 26, -84, -54, 21, 0, -51, 11, 51, 68, -27, 2, -42, 110, 62, -78, 114, -113, 63, -77, 101, 71, 114, -5, 31, -16, -14, 32, 78, -78, -20, 37, 92, -2, 83, -4, 33, -91, 107, -74, -118, -54, -6, -24, -82, 4, -120, -11, -7, 89, -103, -56, -92, 87, -8, 106, 69, 21, 86, -8, -46, 113, -73, 115, 118, -19, 25, -74, 3, 84, -12, -83, 59, 95, -79, 5, -74, 90, -25, 88, -64, 74, 115, -54, 82, 24, 42, 38, -29, 35, 30, -5, 37, 86, 90, 92, 67, 98, -78, -85, 51, -96, -55, -119, -11, 38, -77, 90, 109, 55, 26, 11, -76, -53, 17, -40, 14, -19, 77, -122, 106, 103, -95, -38, 35, -25, 5, 1, -34, -75, 85, -120, 120, -29, -74, -88, 106, 70, -121, 27, 16, 36, -91, -35, 68, -4, -72, 30, -72, 122, 67, 67, 96, 0, -114, 26, -108, -120, 103, 90, 92, -4, 73, -45, -122, -52, -115, -19, -80, 49, -116, 73, 37, 38, -88, 6, 71, -81, -91, -14, -58, -46, -21, -65, -104, -12, 16, 6, -29, 99, 65, 79, 0, -95, 74, -70, -106, 45, 8, 49, -16, 83, 39, -83, 15, 80, -11, 8, -62, -73, -116, -67, -77, -43, -67, 92, 35, -37, 103, -30, -67, -104, 22, -50, -44, 100, -96, -1, 64, -120, 96, 49, -10, 52, -47, -69, 4, -84, -45, -3, -88, -15, -66, -34, -26, -98, -77, -50, 78, -36, 16, -93, 3, -55, -9, 61, -92, -29, -57, 52, 8, 59, -62, 43, -107, -104, 14, 8, 8, -86, 10, 19, 72, 111, 76, 41, 56, -8, 82, -73, 52, 27, -113, 20, 44, -52, -47, -119, 3, 42, 105, 10, 26, -45, -6, 0, 16, 40, 52, -54, -62, 78, -75, -16, -61, -35, 75, -105, -45, -43, -96, -105, 85, -112, 25, 29, -34, 87, -22, -8, -39, 118, -2, -38, 23, -37, -47, -111, 11, -70, -7, 110, 105, -84, 7, -17, -89, 97, 67, -63, -4, -107, -11, -45, -98, 92, -44, 91, 121, 2, 121, -54, -100, -105, -107, -37, -113, 67, 25, 60, -1, 30, 91, -63, -40, 33, -90, -63, -83, -25, 24, -12, -108, -120, 72, -87, 83, 76, -70, -116, -108, 46, 79, 88, -73, -104, -22, -104, 56, -66, -39, 82, -120, -122, -49, -64, -38, 120, -40, 53, -107, 3, 105, 113, 102, 119, 45, 72, -115, -91, 107, 24, -40, -37, 65, 82, 102, 117, -71, 110, 30, 104, 41, 4, -53, -51, 48, -55, 96, 0, -86, 19, 112, 111, -58, -36, -52, 113, -92, -85, -38, 112, 38, 63, -77, 5, 92, -54, 32, 112, 77, -106, 1, -24, 19, -75, 51, 8, 84, 9, -17, -76, 74, 111, -90, -11, 75, -116, -53, 26, -19, -71, -34, 89, 125, 123, 96, 73, 103, 0, -120, 22, -67, -12, -52, 67, 52, -103, 96, -90, -34, 15, 18, -11, 7, -102, 16, 85, -62, -15, 6, 30, 12, 16, -66, -87, -103, 72, 89, -99, 42, 121, 114, 110, 67, -87, -108, 71, 72, -16, 107, -125, 119, 29, -26, -107, -3, -21, 37, -33, 32, 38, 122, 103, -90, -94, -32, -104, -83, 26, 112, -85, 6, 11, 51, 15, -50, 48, 68, -38, -60, 71, 72, -92, 60, -115, 18, -107, 41, -4, -58, 4, -96, 69, 10, 97, 94, -88, 93, 86, 26, 58, -109, 123, -110, -33, -41, -18, 99, 32, 77, 40, -58, 39, -33, -18, -105, 39, 64, 29, 42, 40, -40, -87, 13, -14, 32, 123, -110, -14, -70, -84, -64, -27, -33, 106, -95, -119, -45, -16, 103, 13, -102, -96, -54, 0, -48, -54, -46, -90, 86, 5, 81, 21, -16, -68, -68, -77, -109, 110, -36, 64, -56, 52, 32, -51, -70, -113, 4, 47, 72, 78, -48, 74, -88, 116, -70, -45, -25, 25, -46, 62, 76, -41, -70, 26, 113, 70, 52, 31, 74, -35, -121, -1, -108, -5, 23, 35, 26, -61, 80, 53, -69, -121, 103, 10, 73, -2, -87, -100, 41, -21, -53, 107, -67, 87, 80, 81, -23, 77, 113, 75, 84, -58, 89, -86, -83, -29, 87, -44, 46, -108, -27, 107, 63, 75, 109, 73, 26, 57, -118, -8, -82, -38, -110, 11, -93, 34, -61, 67, -79, 77, -44, -75, -68, -1, -113, -23, 49, 49, 81, -38, -85, 104, 111, -121, 60, -117, 119, 7, 122, -118, 30, 47, -115, -101, 19, 105, -104, -58, -60, 7, 52, 85, -81, -11, -4, -98, 64, -33, -99, 26, -64, 15, -41, -95, -35, 42, -78, 115, -18, 61, -30, -120, 45, -118, -79, 79, 59, -26, 10, -98, 119, 47, -76, -61, -111, 78, 48, 115, -73, 93, 109, -122, 30, -83, 25, 63, -89, -107, 60, 59, -60, -1, 95, 118, 108, -122, 1, 22, -42, 74, -16, 44, -86, 87, 115, 85, -65, -68, 8, 40, 60, 108, -109, 18, 75, 63, -4, 47, 61, -51, -98, -95, 94, -109, 46, 18, 37, -97, 93, -48, 97, -99, 19, -105, 60, -39, -57, -99, -102, 67, -2, 33, -44, -98, 99, 14, 26, -25, 73, -29, -51, 6, 55, -33, -23, -13, -66, 39, 8, -3, -18, -47, 26, 23, -44, -81, 43, -125, -120, 47, -11, -56, 79, -37, 60, 64, 59, -27, 76, -113, 0, 62, -33, 55, -93, 52, 45, -13, -87, 122, -17, -102, 28, 36, -55, -24, -24, 4, 91, -17, -111, -19, 66, 59, 38, 24, 6, -89, -116, 10, -75, 16, -22, -82, -65, -109, -112, -33, -39, 48, 75, -88, -65, -76, -44, -59, 98, -5, -62, 93, 16, 35, -122, -90, 110, -74, 99, -27, 63, 63, 41, -77, -97, 52, -101, 0, -67, -26, -82, 111, -15, 10, 99, -113, -42, 59, 1, 12, 68, -112, -38, 69, -119, 41, 35, 79, 71, 26, 57, -123, 96, -60, -77, 62, 91, 105, 116, -98, -26, 48, -25, 50, -15, 12, 41, -90, -107, 21, -40, -91, 28, 122, 10, -69, -48, 37, -59, -99, 83, 94, -121, 103, 20, 0, -2, 58, 96, -11, 103, -60, 59, 75, 109, -100, -47, 68, 108, 15, -77, -93, 6, 17, 108, 39, -35, 57, -39, -112, 85, 105, 114, 35, 45, 90, -12, 92, -46, 119, 86, -32, 4, 74, -92, 69, -76, -75, -39, -34, -89, -71, -118, 106, 21, 63, -42, 15, -16, 47, 43, -57, -53, -59, 95, 79, -86, -79, -49, -18, 96, 47, 83, 47, 4, 70, -58, 80, -77, -46, -86, -115, -6, 32, 79, 42, -81, -67, -28, 2, 78, 85, 77, -112, 110, 25, -97, -64, -89, -88, -68, -75, -88, 81, 131, 93, 91, -11, 70, -60, -28, -125, -106, 31, -34, 23, -107, 71, 68, -1, -65, 77, -74, -132, 47, 33, -61, 18, 97, -45, -52, 104, 107, -107, 23, -23, 34, 118, 21, -71, 16, 42, -67, 56, 82, -126, -101, -65, 13, -75, -2, -103, -97, 64, -37, -86, 39, 24, -111, -74, -24, -10, 115, -57, -61, -78, -67, -18, 14, -96, -47, -26, 54, 22, 112, -76, -17, 70, 112, 19, -68, -118, 65, 23, -11, -71, -72, 14, -65, 85, 1, -71, -91, -48, -50, -96, -41, -58, 10, -12, 65, -40, -4, 22, 63, -88, -18, 74, 29, 23, 76, -70, 118, -108, 96, 84, 44, -68, 27, -1, -2, -58, 7, 88, 103, 80, -116, -51, 56, 103, 108, -75, 81, 84, 115, 110, -121, 6, -6, -58, -12, -78, -111, -51, 55, 78, -101, 112, 34, -121, 18, 42, 85, 34, 99, -48, -72, -120, 115, 50, -18, -83, 28, -39, -89, 20, 6, -34, -117, 92, 68, 94, -5, 77, 16, -74, -107, -93, -55, 84, 44, -69, -22, 30, 85, 0, -102, -40, -3, -107, 109, 80, -1, -10, 108, -27, -88, -25, -82, -121, 42, 59, 16, -4, -39, 105, 87, -45, 70, 53, 116, -116, 112, 2, 98, 116, -69, 9, 106, -106, 114, -46, -44, 31, 69, -65, 100, 80, -32, 20, -57, -62, -89, 110, -31, 73, -83, -96, 50, 80, 16, 85, 104, -70, -105, -30, 27, 56, 36, -48, -97, 5, 110, 34, -47, -66, -93, -114, 5, -109, -74, -55, 117, 81, -68, -133, 49, 112, 50, 8, 76, -113, 91, -98, -64, -91, 22, 1, 9, -5, 11, 95, 59, -104, 72, 100, 113, -35, 21, 74, 107, -124, -69, 2, -16, 25, -113, -113, 17, -69, 12, 105, -38, -82, -18, -9, -117, 27, -1, -110, -72, -67, 90, -7, -72, -62, 75, -79, -101, -67, 79, 62, -83, 62, -125, 57, 65, -48, -69, -87, 73, 114, -38, 74, 30, 5, -119, 58, 82, -87, 6, -72, -26, -100, 15, -76, -68, -25, 74, 30, 123, 56, 65, -107, 77, 87, 67, 42, 72, -27, 113, 79, 81, 120, 120, 19, 28, -85, -101, -47, 114, 20, -33, -91, -118, 120, -2, -18, 73, 56, -69, 86, -37, -9, 75, -33, -92, -56, -24, -121, -75, -122, -122, -9, -122, 81, -73, 19, 101, -58, -49, 70, 72, 108, -58, 10, 79, 53, 69, 104, -27, -91, -123, -116, -113, -7, -28, 87, 84, -77, 89, 98, 38, -56, -44, 64, -1, 48, 52, 69, -63, 97, 66, 93, 27, 27, 20, -77, 117, -108, 61, 76, -26, -68, -1, 118, -13, 0, 103, 47, 100, 82, 102, 99, -105, -82, 51, -59, -62, -103, -110, -120, 28, 95, 21, 84, -85, 17, 8, 70, 9, -116, -76, -72, -59, 26, 61, 59, 13, 58, -97, 30, 47, 0, 26, -27, 59, -51, -92, 80, 0, -44, -19, 119, 66, 19, 108, 112, -66, 7, 95, 22, -25, 95, -57, 3, 13, -86, -59, -28, 10, -72, 75, -57, 106, -61, 55, -59, 81, -19, 114, -83, 85, -116, 30, -10, -7, -104, 49, -62, -37, -25, 61, -48, -45, 30, 28, 106, 72, -83, 21, 121, 47, -56, -122, 108, 45, 56, -38, 58, -64, -9, 91, -43, -2, -72, 95, 89, -68, -13, 82, 114, -9, -104, 122, 120, -90, 107, -89, -35, -80, 114, -65, 4, 96, -24, 33, -17, 92, 11, 132, 52, 45, -56, -58, -19, -93, -41, -63, -37, 37, -47, 80, -79, -73, 108, -34, -84, 52, 57, -31, -74, -89, -14, -3, -33, -26, 101, -106, -6, -117, 123, 30, -2, -3, -35, 63, 29, -118, 65, 61, -78, -95, 40, 13, -22, -3, 49, -25, -26, -77, -100, -39, -59, -74, -62, -119, 107, 62, 65, 57, 8, -24, 87, 129, 52, 81, 11, -73, -60, -29, 72, 93, 53, 121, 12, -59, 38, -73, -67, -88, -96, 95, 25, -82, -50, 25, 65, 9, -2, -2, -122, 90, 108, -105, 83, 36, -114, -22, -85, 121, 4, 85, 14, 35, -17, -65, -54, 32, 50, 24, -98, 61, 51, -23, -16, -31, -99, -98, 27, -39, 16, 88, 100, -119, 38, 122, 17, -30, 57, -121, -26, -83, -113, -31, 22, -119, 24, -111, -33, -24, -43, -5, 114, 107, 75, -82, 45, -95, -74, 81, 121, 67, 109, 64, 98, 0, -79, -104, -116, 32, -64, -121, -26, -45, 43, -30, 72, 106, 29, 64, -52, 43, 10, 87, -39, 92, 65, -23, 39, -36, 55, -45, 98, -95, 62, -11, 98, 119, 15, 54, -8, -3, -94, 114, -116, -36, 111, 87, -65, -49, 43, 88, -107, 61, -22, -61, 36, 49, 9, 28, 115, -110, 29, 28, 56, 45, -28, -54, 3, -29, -119, -93, 89, 20, -8, -10, 73, -62, -123, 88, -75, 35, -106, 19, 80, -56, 101, -5, 9, 110, -105, 65, -9, -17, 26, -19, -109, 120, 21, -71, 12, 42, -58, 38, 110, 96, -99, 60, 56, -88, -42, -53, 0, -96, -66, 118, 63, 33, -11, -5, -72, 88, -29, 96, 31, 62, -25, -5, -40, 46, 45, 90, 109, -93, -80, -13, 121, 73, -122, -122, 15, 20, 28, 99, -4, 77, 50, -72, -12, -25, 95, 10, 9, 74, 40, 89, -81, 107, 17, -18, -10, 74, -42, -81, -89, 0, -94, -33, -95, -64, 15, 54, 93, -115, -74, -73, 59, 18, 82, -39, 0, -69, 94, -90, 112, -115, 72, 67, -52, -123, -73, 74, -92, 45, -68, -70, 107, 114, -93, -10, -88, 84, -90, 109, 92, -92, 65, -60, 35, 72, -38, -4, 18, -9, 78, -59, -8, -59, 4, 87, 86, -29, 33, -42, -47, 121, 110, -13, 111, -3, -94, -8, -100, 102, -107, 100, 53, 0, -62, -28, -57, -116, 92, 102, 121, 76, -73, 110, 43, -93, 98, 82, 5, -72, 58, -53, -56, -119, -34, -18, -57, 1, 49, -57, 109, 122, -105, -25, -2, -25, 104, 42, 26, 70, 18, -41, 5, -5, 59, 120, 24, 13, 66, -118, -61, -29, 8, 83, -112, 91, 29, 118, -100, 95, -49, 47, -114, 102, 79, -68, 103, 52, 65, 42, 74, 110, -10, 0, 35, 111, -4, 93, -62, -66, 7, 115, -44, -72, -52, 7, 112, 90, -136, -36, 68, 39, 70, 116, 14, -155, -11, -83, 109, -71, -29, -60, 36, 31, 116, 92, -92, -24, -109, -57, -80, -53, 26, -38, -32, 98, -19, 113, 153, 64, 36, -26, 59, -64, -52, -104, 47, 32, -70, 3, 40, -34, 30, 91, 112, -42, 97, -69, 71, -76, 4, -65, -78, -104, 7, 90, -70, -48, -36, 69, -37, 87, -78, 117, -92, -11, 6, 14, -79, -40, 16, 4, -30, -14, 31, 104, -95, 97, -24, -107, 81, 66, 117, 81, -42, -111, 100, 82, 30, -119, 99, 25, 10, -2, -129, -25, 52, 116, 55, 62, -28, 62, -9, 21, -40, -65, -81, -82, 103, -111, 55, -42, 4, -123, -5, -61, -26, -110, -13, -31, -1, 3, -55, 30, -14, 132, -58, 37, 114, 108, 1, 92, 89, -72, 48, 47, -50, -94, -89, 84, -100, -67, -118, -4, -66, -68, -68, -84, -30, -126, 95, 86, 40, 86, 39, 0, 55, 93, 2, 105, -14, 89, 74, -81, 92, 54, -76, -106, -68, 69, 39, 34, 0, -74, 107, 18, -48, -100, -96, -6, -126, -43, 61, 18, -96, -98, 7, 53, 113, -31, -117, 96, 11, 115, 7, 96, 50, 110, -76, -108, -15, 26, -66, 9, -27, -116, -115, -101, -80, -101, 73, -113, 121, -65, -70, 84, -19, -34, -93, 93, -71, -33, 2, -70, 66, 43, -1, -77, 7, 24, -86, -96, 63, -58, 71, -34, 8, -76, -73, 87, 27, 12, -83, 48, 117, -74, 15, 53, 22, -31, 60, -67, 95, -123, 12, 55, -86, 41, 67, 7, -110, 74, -101, -63, -39, 50, 74, 122, -62, -76, 45, 90, -53, 86, 118, -38, -42, 68, 74, -120, -111, 117, -35, 121, 118, -72, -105, -67, 48, 102, 71, -32, 44, 17, 35, -86, 4, 8, -104, 48, -90, -5, 19, -9, -76, 44, 61, -95, -30, 0, -98, 6, -101, -89, 8, -44, -46, 5, 112, -50, -122, 49, -76, -110, -38, -75, -97, -75, 20, 83, 121, 62, -21, -66, -109, 115, -23, 103, 20, 57, -121, -88, -52, -117, 90, -122, 94, -67, -45, 15, 38, -58, -44, -93, -111, 92, -81, 66, 92, -85, -60, -54, 112, -50, -29, -80, -25, 0, -66, 75, 108, 93, -34, -105, -125, -48, 59, 35, 15, 72, -84, 58, 61, 106, 23, 58, -116, 104, 31, 56, -103, 42, -36, 30, -115, -121, -120, 112, 81, -12, 66, 29, -64, -68, 86, -40, 99, -42, 75, 66, -48, 110, 53, -56, -21, -65, 52, 55, 127, -61, 10, 36, 19, -55, 38, -67, -72, -91, -100, 53, 14, -114, -15, 46, 35, 86, 45, -81, -127, -108, -27, -16, -12, -29, -59, -80, 123, -5, -40, 89, -79, 29, -108, 78, -123, 122, 1, 114, 32, -21, -108, -40, -19, -17, 107, -42, -86, 12, -38, -113, 121, 110, -17, 111, -5, 97, -116, 65, 17, -93, 107, 65, -62, -70, -46, 85, 47, -48, -117, -43, -96, -3, 49, -98, 18, -114, -29, -7, -7, -48, 84, -7, 107, -30, -1, 62, 65, 69, 101, 48, -91, 30, -115, -29, -46, 111, 101, 40, -50, -130, -45, 3, -77, -54, -63, 48, 0, 63, -88, -82, 61, -75, 43, 108, 50, 7, -54, -96, 90, 50, -12, 82, 106, 42, -26, -32, 89, -94, -2, 116, 23, 11, 53, -53, -109, -6, 90, 23, -98, -36, 12, -92, -56, 119, 114, -3, 50, -61, -1, 103, -56, -46, 86, -45, -38, 89, 36, 105, -31, -42, 13, -38, 16, 76, 52, -67, -86, 42, -3, 125, 1, -30, -102, 89, -75, -110, 122, -70, -37, 113, -35, -122, -81, -77, 83, 98, 38, -54, 121, -98, 53, -24, -74, 34, 78, 109, -68, 93, -75, 38, 90, 24, -107, 76, 58, 5, 37, -61, -101, 22, -110, 99, -11, -69, -109, -47, 74, -54, -25, 44, 4, -76, 51, 65, -19, -36, 19, 38, 0, 99, 108, -54, 75, 39, 87, 87, -22, 27, 55, 70, -23, 15, -16, -107, -8, 77, -78, -51, 108, 19, -94, 19, 53, 10, 72, 106, 37, 54, 53, 58, 35, 89, -22, 76, -32, 44, -23, 80, -15, -17, 97, 54, -13, 77, 4, 16, -70, 87, 108, 47, -87, -29, 4, -118, -5, 104, 2, 105, 60, 12, -7, 11, -31, 86, -75, 58, -32, -65, -25, 73, -12, -22, 107, -119, -106, 10, -8, -74, 65, -53, -15, -49, 101, -12, 106, -31, -72, 35, -81, -66, 98, 9, -120, -82, 84, 34, 121, -14, 26, 39, 89, 34, -37, 121, 77, 27, -78, -92, -104, 123, 23, 21, 14, 43, 57, -98, 93, -91, 35, 10, -1, 13, 12, 76, -27, 38, 0, -94, 99, 50, -55, 44, 42, -9, -18, 114, 33, 65, 100, -6, 3, 64, 86, 21, 93, 15, 88, -44, -83, 46, 54, 0, 6, 19, 118, 12, 25, 83, -118, 41, -112, 24, 46, -48, -16, 5, -70, 10, 117, -50, -87, -101, 62, 80, -12, 81, -120, 10, 29, -55, -122, 112, 0, 1, -95, 121, 119, -21, -98, -29, -49, -3, 44, 64, -4, -97, 57, 114, -119, -41, 102, 96, -20, -37, 2, -18, -45, 70, 36, 21, -30, -37, -57, 1, -18, -24, -96, 108, 100, -46, -85, 23, -3, -52, 74, 66, -66, -127, -9, 109, -94, -122, 36, -83, 93, 56, 82, -101, 75, 28, 105, 78, -43, 84, 22, 75, -48, -21, -78, 13, -11, -46, 7, 3, -79, 10, -100, -79, -78, -51, -114, 2, -51, -96, -32, -36, 21, 76, 84, 18, 119, -20, 38, -40, -30, -95, 67, 34, 71, -104, 3, 21, 116, 39, 86, -13, 102, 36, -26, 97, -23, -40, -114, 118, 56, 13, -60, -75, 29, 122, 114, 5, 67, -27, 61, 59, 38, 15, 34, 77, -108, 7, -61, 74, 33, 106, 100, 105, 103, -8, 41, -110, 58, 108, -95, -106, 26, 101, -8, -102, 116, -15, -67, -113, -2, 78, -93, 19, -96, 1, 87, 29, -38, 45, -63, -22, -46, 46, -59, 99, -94, 98, 12, -57, -117, -118, 15, 122, -108, 111, 123, -119, 123, -39, 94, 114, 43, 6, -52, 80, 2, 33, 88, -70, -55, 40, -8, 40, -49, 26, -61, 66, -122, 71, 72, -122, 101, 104, -86, -90, 73, -5, 32, 68, -44, -1, 6, -67, -40, -120, -20, -120, 62, -48, -85, -72, -56, -116, 50, -97, -83, -112, -44, -17, 120, 58, 97, -99, 63, 0, -105, 52, 98, -71, 64, 31, 6, 32, -72, -76, 5, -120, 71, -94, 78, -87, -104, 42, -106, 48, -99, 4, 98, -93, -94, 45, -17, -32, 102, 4, 47, 68, 90, -35, -77, 57, 0, -101, 30, -90, 106, 41, 118, 123, -114, -23, -21, -26, 74, 51, -86, 79, 70, 30, 123, -62, -87, -84, 62, 8, -47, 3, -45, -47, -123, -77, 48, 105, 16, -29, 98, -85, -5, 20, 80, -35, 89, -87, 4, 71, -116, -90, -108, 122, -8, 87, -97, 31, 0, 22, -31, 64, 121, 105, 52, 16, 2, -53, -59, 102, 41, -12, -30, -66, 71, -91, -94, 13, 7, -102, -7, -73, 58, -94, 100, -1, -13, -42, 115, 114, -47, 65, 14, -117, 52, 100, 107, 44, -3, -49, 118, -48, -26, -107, -122, -64, -8, 65, -93, 23, 113, -33, -106, -17, -37, -65, 80, -56, 101, -73, 47, 71, -57, -90, -47, -81, 105, 23, -5, 117, -31, 67, -96, 94, 105, -3, 67, 79, 49, -26, 93, -19, 4, -98, -74, -16, -72, 77, -112, 86, -134, 68, 83, 44, -110, 45, 121, 4, -119, -80, -54, 6, 19, -3, -108, -11, 55, 36, -60, 23, 33, -12, 114, -54, 97, -119, 112, -91, 56, -3, 0, 83, -13, 109, 116, -41, -75, -74, -5, -33, -95, 104, 65, -59, 98, -111, 96, -5, -40, -75, -25, -34, -103, -86, 0, 96, -50, -23, -32, 88, -105, -58, 66, -2, -56, 20, -76, -52, -78, -31, 70, -106, 112, -114, -56, -21, 115, -18, 109, 103, -72, -117, 58, -37, 82, 62, -54, -90, 123, 118, 109, -98, 116, -57, 109, -72, -76, -43, -102, -16, 85, -67, 28, 46, -97, -44, -83, -109, -19, -67, 100, 9, 75, -81, 1, -94, -59, 44, 62, -119, 0, -87, 102, 88, -16, 106, 102, 102, -2, -42, 42, 38, -34, -103, -84, -118, 7, 83, 0, 51, 9, -101, 101, 120, -92, -81, 73, -21, 25, -97, -106, -98, -105, -65, -50, -107, 34, 33, 103, 73, 74, 81, -36, -68, 43, 102, 98, 108, -58, -53, -7, -59, 36, 57, 100, -104, -71, -123, -27, 109, -1, -123, 61, -13, -93, 8, 85, -66, 120, -106, 112, 0, -98, -29, -43, 11, 5, 66, -94, 116, -105, -98, -15, -4, 34, -73, -18, 62, 95, -108, 44, 34, 41, 80, 104, -15, -34, 102, -46, -88, -11, 78, -107, 66, -89, 0, -64, -39, -96, -17, 14, -8, 91, 114, 4, 3, 104, -114, 117, 92, 7, -14, -59, 35, 71, -83, -59, -91, 88, -84, -111, -28, -11, 108, 71, -19, -58, 25, -19, 51, -47, -5, -36, 71, -45, 17, -104, -61, 52, -104, -96, -4, 81, -84, 115, 23, -93, 47, -26, 43, -22, -37, -54, -54, -49, 13, -61, -86, 10, 96, -20, 90, -22, -108, -72, 45, 113, 22, 11, -62, -9, -59, -45, 71, -23, 55, 115, -58, -5, -65, 115, 82, 4, 16, 41, -46, -34, 59, 12, 54, 96, 121, -14, 47, 105, -9, -120, 82, 100, -23, -53, -63, 52, 107, 76, 38, -20, -36, -9, -57, 61, -54, -81, 0, 76, 96, -39, 96, -31, -16, -115, -116, 51, -49, -16, 100, -32, 1, -66, 100, 61, -74, -120, 64, -5, -100, -103, -26, -48, -78, 54, 110, 81, 0, 27, -79, 57, 111, -33, 99, 54, 9, -57, -4, -92, -101, 116, -118, -42, 84, 80, 90, -104, -43, -112, -111, -92, -53, -91, -119, -11, -75, -23, 23, 18, -46, -66, -83, 48, 46, -36, -114, 44, 95, 111, -23, 60, -94, -52, 28, 62, 120, 35, 119, -116, 13, -56, 36, -60, -36, -13, -24, -37, -116, 109, -33, -35, -91, -21, 68, -38, -105, -8, 98, 116, -23, 98, 105, -89, -65, 18, 122, 12, -86, 82, 82, 38, -113, 47, -102, 19, -68, -40, -117, 90, -9, 105, 24, 110, 71, -120, 62, -52, -96, -1, -55, -102, 5, 15, 24, -46, -34, 18, 26, -119, 34, -72, -116, 97, 117, 30, -9, -116, -99, -92, 82, -36, -79, -54, 39, -40, 81, 61, 109, 91, -105, 79, 82, -54, 46, -52, -50, -15, -63, 43, -112, 85, -70, 95, -45, 57, -90, -26, -85, 108, 122, -17, 37, -35, -80, -53, 67, -103, 56, 119, 51, 64, 91, -104, -27, 21, -33, -70, 10, -56, 67, 60, -115, -70, 71, 60, -90, -108, 35, -57, 11, -7, -92, -62, 67, 85, 94, 33, -60, 1, 32, 90, 90, 17, 61, 122, 70, 80, -84, 48, -116, -27, 82, -86, 86, -50, 17, -39, -95, -13, 38, -121, 83, 39, 19, -111, 103, 113, -34, -85, -114, 107, -95, -72, -94, -131, -77, 36, -88, 107, -34, -54, 62, 76, -113, 19, 20, -102, -65, 23, 76, 58, 24, 100, -104, -68, 20, -2, -23, -9, 68, -59, 56, -90, 57, 8, -6, 11, -51, -83, -19, -81, -67, 29, 45, -65, 7, 78, 76, 34, -103, -79, 26, -66, -84, -24, -119, 35, 0, 44, 112, -20, -80, 52, 103, 34, -9, -107, 44, 4, -35, 95, -94, 10, -69, 50, 71, 20, -25, -102, -91, -113, -95, -25, -81, -81, 4, 38, 116, -41, 67, -6, -126, 35, 10, -70, -51, -22, 83, 53, 68, -30, -99, 72, 87, 41, -41, 12, -27, 114, -96, -71, 6, -15, 63, 79, -50, -111, -106, -73, 74, -71, -122, -17, 81, -125, 14, 61, -58, 59, 62, 63, -107, -42, -70, 28, 56, -52, 103, -81, -92, -42, -78, -100, -50, 10, -106, -37, 103, -2, 63, -120, 45, 45, 101, -57, 34, 93, -93, 84, 75, -81, -55, 116, -87, 108, 1, 104, 6, 8, -56, 28, 102, 97, -72, -75, -116, -30, 31, 69, -41, 14, -111, 21, 32, -34, 24, 106, 39, -47, -29, 64, -26, 7, -106, -67, -91, -69, 11, 93, -113, -87, -92, -62, 11, -74, 82, -90, -82, -58, -60, 25, -29, -125, -80, -50, -31, -50, 18, -152, -78, -38, -53, 51, 80, -13, -129, 20, -97, 97, -94, -51, -27, -117, -85, 94, 94, -23, -132, -96, 39, 75, -77, -64, 64, 36, 71, -131, 47, 41, 40, 99, 2, 32, 33, 99, -62, 52, 7, -28, -10, -53, 10, -37, -59, -16, 80, -74, -98, -85, 1, 114, 44, -10, -24, 1, -112, -26, -50, 107, 42, -114, -49, -54, 95, 59, -102, 101, 71, -27, -25, -105, -129, -60, -83, -99, -53, -118, -9, -43, 22, 37, -28, -92, -25, 88, -110, -122, -38, -97, 31, 107, 115, -25, 22, -45, 77, -11, 92, -49, 99, -75, -19, 97, -79, 80, 10, -56, 119, 9, 99, -117, -100, 74, 48, -85, 123, -60, -5, -21, -102, -62, 97, 34, -10, 42, -76, -115, -67, -48, 14, 80, 76, 1, -99, 108, -65, 97, 51, -41, 51, -12, -102, -7, 114, -43, -12, -29, -56, 68, 98, -123, 51, -59, -12, -61, 4, 117, -69, -114, -13, 102, 26, -41, -75, -19, 4, -101, 14, -63, 17, 86, -20, 18, 101, 118, 79, 68, 47, -64, 99, -69, 110, 76, 98, -22, -29, -68, -23, 75, -91, -61, -4, -121, 17, -30, 60, 11, -49, -55, -41, 81, -62, 120, -109, -100, 63, -98, -118, 92, -88, -27, 98, -66, -33, 102, 64, -70, 38, -85, 47, 4, -31, 14, 46, 121, -49, 42, -27, 89, 47, 4, 79, -75, -24, -10, 63, 80, -37, -9, 115, -82, 107, -2, -37, 53, -24, -5, -121, -29, -73, -21, -110, -117, 26, 46, 35, -46, 33, 76, -7, 48, -30, -40, 64, 14, 103, 69, 24, 33, -79, -10, 7, -36, 95, 70, -108, -71, -4, 0, 38, -95, 112, 43, -95, 61, 46, -81, -79, -7, -88, -38, 73, 